0.16524189378014975 0.29457300041652335 0.05721531824568601 0.12444848364318313 0.14137899344868715 0.24544392554892538 0.2251067573206448 0.09618390155166744 0.05749826634859756 0.13833578213423645 
0.01227 0.03766 0.03819 0.03293 0.02567 0.01391 0.03535 0.04777 0.03311 0.0359 
0.02876 0.0385 0.01144 0.02039 0.04306 0.00813 0.0326 0.04874 0.04717 0.00204 
0.0014729484498788073 0.03159075042538618 0.0038957211444285117 0.02011313450815594 0.033234258073913024 0.02132248585522437 0.0205207241485693 0.02234752846484509 0.037257891045484 0.019978851826550847 
-0.020163202168157545 0.05570369879910202 0.008980748881748594 0.024591146601812962 0.019370624616981115 -0.0028855123924473453 -0.01842716447000156 -0.009435624480994907 -0.018596662082691395 -0.020036808230496722 
0.028089465930590227 0.1541719729472027 -0.04137797744234234 -0.025429339398444585 0.031127351473123385 0.07085270158443815 0.07413455384129031 -0.026701165648971233 -0.03279744899130872 0.01948026919861809 
0.048051691188228135 0.0639324538866769 -0.01849232977366997 0.004922716046015907 -0.005961907585016189 -0.06065780892810951 -0.02860911698333702 -0.0038453829307588863 0.017136785914591092 0.05608745601441666 
0.029486611268742486 0.14606218249863712 -0.033627368107845494 0.004583655923073271 0.03853664332010868 0.1474766188907412 0.1303060551935288 -0.027549841913823345 -0.07883012455693314 0.02693234982044989 
0.11352070439376269 0.2884472057846317 -0.07810759697777131 -0.06145631885609847 -0.006640513236763859 0.13024297227237147 0.16248321418611408 -0.06551530668876662 -0.14250977985089794 0.0487625316846568 
0.05577804815413096 0.30863120724313287 -0.11268063830177376 -0.027235148186255824 0.053307324562793246 0.20339256362825506 0.2502063043581959 -0.0649296455642608 -0.14278496867594306 0.00880199741717464 
0.06829706975441519 0.2906254842980496 -0.1212370182386686 -0.09695147641842601 -0.020304972366136244 0.13022814926790355 0.1262124888927835 -0.09498112241518167 -0.16480067199337514 -0.0009866362783660838 
0.12219647423371202 0.4963700415937454 -0.14260060080573989 -0.12136349155822013 -0.0063310704533333425 0.23273187542953253 0.2968132483898636 -0.16410010767639857 -0.25798780933532195 0.016776204206993776 
0.1708876304091301 0.32554224156431766 -0.11214622797144318 -0.11997615416383724 -0.07850310490980467 -0.001729522333455251 0.0615681920363141 -0.14740671753605733 -0.19338534577765393 0.054121689692334954 
0.13261984758753617 0.13963583441038338 -0.04993460338013318 -0.09870520510726935 -0.15034699750554148 -0.039543317801028544 0.0194667374001053 -0.1524526880704948 -0.12278812722033365 0.03440236849228979 
0.0728394349809639 0.005271420850960003 0.019502023318551387 -0.04133901228774621 -0.08068242972148777 -0.09482964580683373 -0.013418470375863108 -0.028037062178455096 -0.05182634417007563 0.02871582616610719 
-0.03816964540719238 -0.06390903933962375 0.05086904168382653 -0.009568252348214352 -0.013507944893127566 -0.09436545318211706 -0.060262195432742444 -0.02398873996445321 -0.003722635536814737 0.002049776108691727 
-0.05564330838653673 -0.18702062022971616 0.009083699832466135 0.04561046452149824 0.07447606123692894 -0.0039778426275392485 0.006276722223972766 0.034162067504856744 0.03512010575019556 -0.011911100023544584 
0.023902433394180127 0.06379802121174313 -0.007797667240488019 0.052326548823986616 0.0764207720972443 0.09025345600472558 0.07765006854658274 0.042168440845385194 0.014800395465081535 0.017125439133555968 
0.013083839995366213 0.1110948068812676 -0.009363358123991113 0.003846012174260229 0.04082073541568302 0.12006988820145313 0.0906090045770444 -0.004443342969883251 -0.03483989950180775 0.0034007094344662755 
0.03873023985453609 0.16142285208820323 -0.05798608141693082 0.0002790942770022702 0.07086707230637741 0.06666201231101883 0.09575975211511578 -0.01923049377218837 -0.07628057988075454 0.01956567461009935 
0.12163182295333269 0.1277118655532426 0.00440895984847251 -0.009144325072785566 -0.056571338411222874 -0.057806887296046466 0.0006619876141702105 -0.02196729101093548 -0.024646961381221827 0.06881169421164987 
0.11234847612852639 0.18014112124384768 -0.01899978668041244 -0.05207419695522222 -0.08280732168708624 -0.01487956142455684 0.03230686736928178 -0.04503868856348092 -0.04759215634393249 0.049918210714134714 
0.1752501192219446 0.1848362877159791 0.050940591265392014 -0.07625855584079058 -0.15502598544137378 -0.1089850468532842 -0.03533437972506718 -0.07180037714465178 -0.070340711695994 0.0963785046601564 
0.08621164038502763 0.20600757635404582 -0.005398284491638563 0.014189741133275865 -0.017168807895481822 0.08576397753522289 0.06895222196932688 -0.030081834018445885 -0.05841208028185513 0.02761180238654617 
0.06717565265263231 0.3566006301745991 -0.040203480408752684 -0.025919665592067816 0.0544716125156884 0.2046808281745774 0.18540784532766028 -0.04681155399863837 -0.0907567794931147 0.03620892857197093 
0.009209918821645083 0.27431029953557345 -0.053178553274161634 -0.034681300589923685 0.06264139460285467 0.19368385610298494 0.1649730373185898 -0.024138530372678022 -0.08067430470878406 -0.012830329128653466 
-0.036200809141701706 0.10490820843099036 -0.05882072074361753 -0.040631955503337584 -0.00412651308855742 0.031005897824484447 0.015058355577686248 -0.029389806559632067 -0.05793690667097336 -0.00961342028217545 
-0.06884952895576371 -0.03155760380096674 -0.0012789019811318258 0.03516498777858587 0.0751096285263974 0.006179193902506527 0.015112339830836107 0.04169435469696023 0.019988646715208037 -0.07183072317700977 
-0.048230127577230865 0.029977119221791255 -0.07025643781849726 -0.0282698535649464 -0.012992802120034662 -0.019665542321923996 -0.011926418668792425 -0.04643495340362194 -0.06993252491639221 -0.01941227437799066 
-0.07491064309560827 -0.19763890878665025 -0.010962945238527064 -0.04188738786666195 -0.050749103891269486 -0.05126991596550767 -0.08487845012667734 -0.03260162150892899 -0.022412358027949608 -0.07374420748240026 
0.048596789001875855 -0.14625372775250375 0.06590392319567208 -0.07930237419936406 -0.2028914030752345 -0.26734868641885795 -0.2078756855477076 -0.09592347102677502 -0.017457901993032515 0.04836584937034757 
-0.024255225494037497 -0.02140784061043454 0.0002937700971654862 -0.011785969425759785 0.002880881261550599 -0.017808967999467632 -0.0030020828451494267 -0.006560010434300621 -0.023195971117928642 -0.04065541878867022 
0.034062393730069 0.0849652694551173 0.017967322376245015 0.009650057268215821 0.028522862310642317 0.06578111425296279 0.060095386988058365 0.0031604674487775673 -0.03083219851103505 0.011942126080433267 
0.007664705951371673 0.09861184898184301 -0.021376253280916406 0.040376555099148656 0.04203079224747312 0.06959911550783096 0.09122882579915903 0.028159923040877964 0.01573923588482117 0.04287279605997341 
0.04619042204026272 0.1841872775521084 -0.011815060782106547 -0.03432420770089887 -0.0027319366445831827 0.0660554156465056 0.08736752599718803 -0.002521675893589358 -0.05399228557029855 0.018232059430874442 
0.15709482155053983 0.34236532902439065 -0.07738076716945833 -0.06895593829378602 -0.04498541591493855 0.07498185163823617 0.09014391564850191 -0.10378081133295432 -0.13123916580582368 0.047998545679338964 
0.11642155777592547 0.15457079118113537 -0.013952966016174247 -0.03966083718978198 -0.10016049960626679 -0.0873127558285611 -0.04279813532432215 -0.07710928729819518 -0.038780094275162005 0.041086675000099715 
0.2211472322642643 0.19290454561617953 0.05352985588662936 -0.02806333181108213 -0.16297596353051583 -0.12158767217251082 -0.07845318479210434 -0.07123437905395832 -0.043852699480079804 0.1234647163291732 
0.07502055249547737 0.11109594143517713 0.0299737795654709 0.018902911816828114 -0.04104904901521396 -0.042368857242760544 -0.007371753501546313 -0.004174075955560288 -0.018214717565689705 0.06831201973252879 
-0.006325451074052372 -0.02803531462624629 0.03129817525526103 0.020055320704399773 -0.0056514724720050855 -0.05877195959313651 -0.08840316195869138 0.02941528110819493 0.07157862195051481 -0.0014859403352019758 
-0.020015193496109696 0.07356625313744541 -0.03651288183718593 0.04917723815610255 0.0884594553606542 0.09545173785184258 0.09682446393862848 0.05949510044636849 -0.011578604762099782 -0.01896263199858907 
-0.04200274141261656 0.12849959644183306 -0.0387964548011114 0.053285405015138176 0.14679337085238608 0.21024797025987904 0.1867001627253855 0.021841635946919992 -0.034303860257692005 -0.038634198793948624 
-0.13063732680833676 -0.19086533331235953 0.030997023355146393 0.0022440499354509274 -0.0003565545470601266 -0.0999251165907527 -0.12303195067828086 0.06478354071874393 0.06497266031870191 -0.03657303323894186 
-0.0796195639349846 -0.21248461315691858 0.0354139874876287 0.02111200383020058 -0.08433848001115862 -0.1765539600812694 -0.20471418241644065 -0.0035857328632074165 0.08655624229609185 -0.04761797101163192 
-0.10634519563862391 -0.2575066405656341 0.06355149407861387 -0.0209086069510833 -0.0952774601621881 -0.216546851522422 -0.24056310099774933 0.006844801657589907 0.06591148662628307 -0.03145819147686305 
-0.04027134321079556 -0.17668120077448815 0.02334729436215191 -0.056413084462075255 -0.037141173801130696 -0.10472855846941656 -0.12766880897003666 -0.03750392145972001 0.013183481102536202 -0.045391350874407856 
0.011421665482700842 -0.05072990450843468 1.3497137419469368e-05 -0.029243944223741335 -0.04884643823789042 -0.039293820079979946 -0.046665150620071746 -0.02423685275802216 -0.04305173580502573 -0.027091058925565598 
0.05297913430049123 0.15180740529317532 -0.044310485718145914 -0.07681349335924342 -0.06406809843942109 0.0025766180756059097 0.04027412548290766 -0.06214976480464589 -0.11161209589926979 0.007747195475857137 
0.04049900422556372 0.29538951971645927 -0.06282409332355438 -0.007377357684589941 0.0958323560461135 0.2583112602711197 0.3158110158221605 -0.048860493252307485 -0.14092166146759563 0.011495547612528504 
0.05811765108049442 0.1855397100119132 -0.03194813757918091 0.005358565275073177 0.04563984679545788 0.13373527926559073 0.12934427644249785 -0.03045183251181585 -0.06622660499644081 0.06477614859402497 
0.1254452059207102 0.41130312669813485 -0.10615056230440056 -0.0542908721143288 0.03859736876098942 0.17296645302785243 0.23333122564841965 -0.0851420355017956 -0.19415258473602962 0.02977256157276175 
0.1340721180743814 0.24610034723303228 -0.010123634917017192 -0.045604193751448904 -0.07963655884573674 -0.009817867609574083 0.062206538937998934 -0.06053704357050407 -0.09907674958964718 0.08199240527940845 
0.08715088200602614 0.07830874113521596 0.030186034278434068 -0.023158037089872976 -0.09998995685758087 -0.09185691997836609 -0.08009408528716797 -0.028009211342086487 -0.029094667730697507 0.03791195247197335 
0.003739985540430932 0.11515973942603606 0.008985148764239179 -0.01792526813208392 0.012020175760742158 0.09845891590510294 0.10865827716983717 -0.025724578119216336 -0.012413791663892199 -0.005205033813265093 
-0.019014593553121288 0.03373803444333826 0.03578356519770973 0.019361129267977367 0.04688360233947384 0.13276534346732302 0.060999749795284476 0.017800264314907534 0.04201887846784931 0.011376964477674422 
-0.07862380534438726 -0.12654112961503097 0.016606038619888054 0.05975455034496753 0.12848498543232206 0.05795854691213499 -0.012869263652421855 0.10179280791135181 0.10293371413490673 -0.03175303219209284 
-0.06805518753275039 -0.039751072993852346 0.016423212794178996 0.04439303230764756 0.11803463805170115 0.1096156193382414 0.07422849925431231 0.08961382907624685 0.05604723080221828 -0.021996099504351795 
-0.16197837204344837 -0.11014950258859069 -0.03997710629600856 0.04470915687266566 0.0990999325436027 0.05630207331524953 0.003051222052440964 0.07145669483246868 0.05681598395374074 -0.07368551683969214 
-0.10598343547883365 -0.2542062735760856 0.04599932070638143 0.05126358130023258 -0.008488246920245954 -0.21345856719333678 -0.21250675398786015 0.048123113640528126 0.10159630439915983 -0.060050047877501206 
-0.09149796931133158 -0.20678279433009372 0.033844030632658124 0.00851505883774297 -0.04632727081131277 -0.20250622556205156 -0.1979167387025588 0.017518641691769487 0.057836854377394574 -0.04818103090156704 
-0.13240195179653538 -0.028633453898429986 -0.08581409030726811 -0.018049627251873937 0.07194829659359023 0.024686651100273294 -0.013621406598176782 -0.021677441123152143 -0.014299330838740177 -0.13010643258442614 
-0.050619966535383996 -0.042382725616304455 -0.02734574315919372 -0.04228710785314438 0.0019586862802579673 -0.03935644750764078 -0.05268637469547356 -0.0431601175220068 -0.01128274029104077 -0.05816725484461655 
0.06825309698228782 -0.0030276556972078303 0.030795234298786774 -0.08201565704021187 -0.14404678876248417 -0.17628926095748765 -0.11593486406201842 -0.06541209717870808 -0.07179651325119886 0.05568469901066411 
0.056580455514483353 0.07770849605385947 -0.014966042440448638 -0.029607991496079233 -0.05317786375764758 0.030956392929875495 0.05691944811313518 -0.07316054681662594 -0.08160907116002283 0.033280444857020065 
0.005297805054980954 0.194093799021107 -0.02525818859641621 -0.005288776074722297 0.09818925437367641 0.22523525074172562 0.2189230268381131 -0.008357233279959348 -0.05578435307640834 0.030365754713422396 
0.1288225494020929 0.3207869497052681 -0.06461703964130415 -0.017093830489442175 -0.03284724187347117 0.12702689125371266 0.17440427561994162 -0.049920894815359426 -0.1356585847407769 0.06539904916305131 
0.1871025488460652 0.2965166462490817 -0.021169168771935122 -0.08272278481691307 -0.08457774465850443 0.020616002836168348 0.07967596008212521 -0.09583367940705964 -0.10731282241503154 0.08248772589855999 
0.07238015078662807 0.24898848563871956 -0.021850451640133994 -0.037546206830438515 -0.004739893591846268 0.048297423425785156 0.07339141960827829 -0.08429892809763054 -0.10761296277013493 0.0663869752016684 
0.11259477239376203 0.08600589125717542 0.012973150335106596 -0.05042260442228856 -0.13464165258426936 -0.19630212665554075 -0.1519000675403576 -0.07473189690197188 -0.020475443231448356 0.09182458661249288 
-0.04589964577623594 0.22245977645543036 -0.08270102734209345 -0.0043576982743325455 0.14731625919892294 0.2839896543118975 0.22699060940845248 -0.008970301118858777 -0.05531936445644348 -0.029737553379124818 
-0.07462738244877659 0.13686509592995041 -0.07745049975408878 0.04824296948365096 0.16115749624285855 0.25017898275954786 0.18073126247033633 0.06165195203792538 -0.02168548973638261 -0.04202992280551781 
-0.08898315091756004 0.046197169981913366 -0.05026472280864992 0.05599080601761912 0.1123481723746094 0.16953494104858405 0.13590706881355394 0.050961900709905195 0.004989411760204586 -0.028227484693350638 
-0.07133112663262473 -0.06355322854290527 0.056679059088380494 0.032835525672218244 0.05144105695169497 -0.03400500514963166 -0.05069905041246786 0.07453117899722242 0.0625600834477727 -0.022001232630980354 
-0.07838442972173396 -0.04487285021063512 0.023425300125318047 0.007316635970782644 -0.0592148437441115 -0.12781962885876308 -0.11449790707220757 0.01492111085539571 -0.007605426311078408 -0.055010244863112845 
-0.0973295329569395 -0.17272020419959772 0.027800535529658506 -0.012137930579026571 -0.06012487800189824 -0.22416120110348922 -0.2260546703619364 0.010577718067799339 0.05861398665973407 -0.07449716727565832 
-0.023213216685190035 0.03882041925813741 -0.061987650229882695 -0.0578841050905034 -0.05369897397414551 -0.04339122188822392 -0.03152747182679846 -0.07961343510726504 -0.06669570192841975 -0.04901435731546163 
-0.08914304347565075 -0.10274503707020667 -0.014352740360540657 -0.06617164620865276 -0.07572870413959819 -0.11635208574628889 -0.06490101384555849 -0.041351355592519665 -0.06400879280932165 -0.05124364495616043 
0.045033348038770966 -0.006509007726383818 0.022860231138486467 -0.05706309711146114 -0.10955799610621694 -0.1105368249385042 -0.08332737828564261 -0.08706421861846937 -0.07073925918513753 0.019843114443985566 
0.06520635203508852 0.15178129216551056 -0.019430514782357744 -0.0733010388404953 -0.10780552241210171 -0.05851484683526234 -0.010034646607939249 -0.0837893515372159 -0.09220928006702761 0.03240765362937076 
0.12922559894797941 0.15600091547464748 0.012058985791074868 -0.05586315462332759 -0.06514545016352478 -0.012951718871521536 0.07490139847630009 -0.0810525378910113 -0.09419526168288206 0.07110297958848771 
0.06482606238186937 0.15692552596641568 -0.011512539752810629 0.008751780397646392 0.046904002567635494 0.09742140353390352 0.11258062558301568 -0.0023827119426968095 -0.043942579438373555 0.06997217323492058 
0.018655151430865456 0.07443207260720619 0.00854360794177719 0.004414981686553493 0.06268355209203284 0.13969708428098587 0.07893470850138869 0.03993161381811483 -0.012377240528655763 0.04211300642396353 
0.10445295404756005 0.19382867612601754 -0.023850970723694076 -0.04311818264540835 -0.056432399469207334 0.004299259100811966 0.055084876238203975 -0.055714904382594174 -0.07089720666420035 0.06247160359794855 
0.1398783822112569 0.13629623369322016 0.05612854245680378 -0.06108876693246115 -0.1620316407160007 -0.1662993063625946 -0.08724108814746107 -0.09340255458031563 -0.022275463623602217 0.12107992082627506 
0.11212102658405129 0.2627165633365432 -0.009908400460494092 -0.021933928198599767 -0.0316406220048349 0.01700793135821166 0.06096492490642466 -0.08125039995066938 -0.06972085270332598 0.05004304972389241 
0.1075946324455192 0.19942490089812293 -0.024635065558439043 -0.031087857115851752 -0.08984837747060168 -0.06468737294635116 0.02972892054223675 -0.08987271053489819 -0.09941268981074965 0.06778617458083364 
0.009699492571838884 0.12331681086271888 -0.04155264085157849 -0.026956569453105705 -0.08625610847990582 -0.025676928469866522 0.004434824476143837 -0.02611305551504946 -0.054219345362017016 0.007795175884953859 
0.041163227544149264 0.08767377470734225 -0.048402348394255 -0.0217351459313299 -0.058932516672323645 -0.004349374899243197 0.03367735415820597 -0.03930871192494415 -0.06728346274882707 0.002978605132544548 
-0.030636744547830424 -0.024585419281681425 0.03672467914416367 -0.010343924016929138 -0.09102576919360408 -0.19377548825756735 -0.12314596793501909 -0.036166659128017045 0.027496016880841308 -0.039270278436484854 
-0.007047016069129927 0.07565903920532309 -0.03229792137727955 -0.07338805722570083 -0.13257270755689124 -0.13367164351455646 -0.13578506534710436 -0.08847114591777927 -0.07086307017778301 -0.035941018818145945 
-0.01651580470862454 -0.08432987421674075 0.008429017566690325 -0.09535382854562958 -0.13586312693811797 -0.25486943644425397 -0.21543110197242574 -0.07211242596242244 -0.037906150196146515 -0.031187995819317815 
-0.04174757480244209 -0.08831314091603086 -0.06291211150522734 -0.07254871605416324 -0.06721757379800278 -0.07977348827199895 -0.09389333004298844 -0.0648742190318286 -0.05187861596656145 -0.049847627925009665 
0.027801014313572486 -0.10493652228737901 0.022861125606979976 -0.04099670759876098 -0.08190476524137688 -0.16560660177101078 -0.13490053159240595 -0.010678006623068441 0.005185387651950032 0.029531599393603954 
0.026284175523288995 -0.07586660611218057 0.047352795878724804 -0.019514004953175356 -0.07510834200350947 -0.14783611650826567 -0.16043808756923594 -0.02151902316921914 0.026455844166564182 0.029194612963838053 
0.02350397504084179 0.071359770881664 0.016629590768026108 -0.06157856390818453 -0.06844871189611025 -0.055339952615988466 -0.03778216310543515 -0.04610411713977336 -0.04816098157354339 0.04328595966963715 
0.09129453134727145 0.015102844422514177 0.025831593768119138 0.00879292913011454 -0.06057636892642071 -0.08665437901024167 0.003880274005634241 0.005632781564629196 -0.006494757342129989 0.08228082146627679 
0.14829707810889015 0.047976927354776266 0.057893494550775325 -0.037061777260952035 -0.1196158457528791 -0.14372214830314062 -0.05871106761604798 -0.03150512778181774 -0.006571571033228567 0.11523232419023761 
0.03397725228632066 0.04118683195099742 0.014313270343740175 0.006260219236540181 0.04372677299616002 0.09624446217680126 0.07642024963457036 0.00998727224156096 0.02448641581508032 0.021729965921242662 
0.15235636858828266 0.11985067955850782 0.0010810103221135445 -0.03858840097787563 -0.10186630436275736 -0.09089741776028501 -0.029106874685275917 -0.047905125984239696 -0.06423750675006308 0.07771485662703158 
0.0731294980731127 0.13233301283022073 -0.009993158805173555 -0.05513596936383906 -0.05661745007338827 0.01008373899340374 0.03648084749020232 -0.08142084024687919 -0.08751464064510243 0.026285914255208154 
0.03175792962152481 0.18398216884563107 -0.017384415758673763 -0.03362900289535742 0.03992200526978165 0.11528535197275555 0.10459157787798787 -0.010216849516737243 -0.03851967496266973 0.0017001588345312464 
-0.03720334835689448 0.14593532946343454 -0.03982287091581349 -0.02733649386184302 -0.00023170448808649408 0.034317915312034375 0.05210405878153633 -0.06280311766939338 -0.065873149614757 -0.04583689270274058 
-0.08561392001152016 0.13626946242920324 -0.0973881688249153 0.01093117043504721 0.09880878399858242 0.19865118892419162 0.13591006563944152 -0.026201384352694475 -0.05250823749574171 -0.09355864705586908 
-0.138383541330538 0.020600000598153152 -0.045343883387628556 -0.007395535019178839 0.01098701538380901 0.031862326553872534 -0.026038995571249522 -0.013861380183461386 0.009403743316044738 -0.08181300043696652 
-0.14275998339759408 -0.07289505600737368 -0.044552231144769354 0.0039064756657264475 0.03579516735289449 -0.0016412115750040757 -0.03330227961645723 0.021245331916347317 0.003819734676146179 -0.10030421576989777 
-0.14105272106506558 -0.13927114486083553 -0.04475842043154487 -0.04943050133762108 -0.009247064539085236 -0.12320791059407085 -0.15140822349963184 -0.03204399167803268 -0.015485926951356314 -0.12225086016822068 
-0.1051321676666142 0.11259574010480533 -0.07773109961796121 -0.08689625409786848 -0.022215143127630906 -0.003012523144286093 0.018628955151599767 -0.09228564493601475 -0.1131421479189563 -0.10231579604942206 
-0.15137652831658593 -0.11361761420743431 -0.04012789923170013 -0.06439077854937468 -0.0013518004595156879 -0.023292270120605155 -0.09565402513521234 -0.06403988072938044 -0.05067659112254288 -0.13316045432777163 
-0.09601724436331585 -0.03208375157177891 -0.03405038679876769 -0.03048957930378271 0.021503874916777965 0.020011816992039706 -0.007827172719036816 -0.04613642347650171 -0.04845636063953213 -0.06165017124678213 
0.05603488662080523 0.033704921449881235 -0.0033094340640027926 -0.044072598991865025 -0.06874162723578546 0.044796023548086386 0.07101336838457484 -0.06646240912413817 -0.07429610153870334 0.004923781154005088 
0.11702270019112436 0.1234022933482192 0.012263786244036788 -0.06856341263422275 -0.07902082305467377 -0.02996639204670722 0.038892165700469175 -0.050532082630705084 -0.048176547841490884 0.08389954122328026 
0.13868408901521 0.16115104100054672 -0.0068764006312097056 -0.03948726335057582 -0.08591605699250786 -0.0926365349586599 -0.017859045952999343 -0.05428152789052783 -0.07213175616472672 0.10084324394185117 
0.06495126238120139 0.10399730909059261 0.028644770047370215 0.012172922827793963 0.03237624385416902 0.04138789132032655 0.03574893096667386 0.022994327133022407 -0.006203747821231917 0.03718434717541959 
0.010208752875743972 0.02176136040924053 0.05233733884775732 0.03527057722603978 0.03414163722805222 0.042624978917004994 0.04352496830810271 -0.007876305155748418 -0.02087252570889974 0.0200774375829239 
0.07946092859525475 0.11041728695582201 -0.015289149989153334 -0.004057822761612416 0.02565514610993073 0.07569342713523167 0.08677545728568925 -0.024049132073050022 -0.031794527998695914 0.05321022245975 
-0.03087826180288119 0.0496383240014353 -0.03192399513082857 -0.019002115660081306 0.04334042637676218 0.11058238310426188 0.09013412145263504 -0.015951055262262818 -0.01880964336680499 -0.00013605230092300115 
0.020631823153716193 0.1262848679337639 -0.07202339808357965 -0.03620191742726979 0.05931330368581942 0.15410093006849374 0.17126629849873148 -0.005700550067302173 -0.09437459220792459 0.0004058416962141008 
-0.07227498045201149 0.1110438899960465 -0.1089185472946929 -0.029799146322031442 0.06951678191848858 0.1802034591673833 0.14600074150165354 -0.01973045956902756 -0.06676143911110119 -0.07121178913090374 
-0.051925518334699584 -0.13515546919306776 0.011533621992401101 0.013392306239616193 -0.03433754913261318 -0.1534767904778762 -0.1819416177793852 0.015166837008669831 0.02207817299374612 -0.019778166445256068 
-0.03544553334700316 0.02433043057749193 -0.004094662005944317 -0.01656599490490348 0.013604538804333832 -0.03456595158668457 -0.021347966865800948 0.0023475955658558718 0.0008550171325486626 -0.04534089941976228 
-0.08660068868731871 -0.014494872870984825 -0.07526154401959076 -0.024548078716300124 0.01926079262098561 0.012088815641221603 -0.009514573688114758 -0.010106391118701815 -0.028265388178666227 -0.06557930586653771 
-0.14406532590001597 -0.14606551369992338 -0.024647502437746327 -0.01835042525820494 -0.031904197499133174 -0.12338009768572908 -0.17492870949328704 0.009076782512377729 -0.00429754953004393 -0.10691664281363132 
-0.07776583465193533 -0.1452412858059664 -0.028284451611135977 -0.08905357678598735 -0.1324299195266787 -0.22042490702152753 -0.21437415730441733 -0.099693404290775 -0.05300904546377774 -0.03428291708187235 
-0.02206712808327295 -0.1903065656594958 0.027719851769376094 -0.0557629743643331 -0.1280153501648713 -0.1708363992213371 -0.21444036684388154 -0.07758674192360875 -0.01574776555053342 -0.04286514778863124 
0.08892608795909335 -0.07483335088420813 0.07286378046237754 -0.02069711451381905 -0.09878265599710892 -0.06246669725174399 -0.05416476037302062 -0.024228094511382473 -0.0006495909992557045 0.059828489458246176 
0.10916567895674917 -0.004978382284040246 0.012918643556315284 -0.0710335598691003 -0.08368818623948045 -0.07850389856235293 -0.03083138794863725 -0.033907450983519064 -0.013738235900576937 0.04650799164343415 
0.1174769291376853 0.04722424772101508 0.04486229692165759 -0.07326426977885872 -0.1238464083116474 -0.1986656630405134 -0.10473584921323127 -0.05243882549463496 -0.018814867214277085 0.10097522020181669 
0.1126238444145937 0.11767177538808667 0.039560431751322275 -0.061495771395624656 -0.07478828921993654 -0.08467773907321344 -0.021491903168442794 -0.03542294775261851 -0.06487947980495058 0.11679225297853899 
0.07809506156729597 0.016886958721658844 0.04776184911307211 -0.006580899994854621 -0.06805015100879583 -0.10664628457511635 -0.09292091123734394 -0.012997827714381587 0.01811127661863209 0.11186855029769309 
-0.08617244007881661 -0.12175092905133142 0.050038865096716345 0.03113074320959371 0.01578230909237738 0.005371350964409324 -0.003472364691318928 0.006046859460409125 0.050560597017464 -0.028557858508267614 
-0.08850910167735315 0.14798429987924133 -0.030136444155897966 0.030444628599275617 0.13962137426117482 0.21498495819380695 0.23584885697328473 0.007101786384504347 -0.04857658661970832 -0.04285841436067067 
0.014411070912178 0.17285880895823424 -0.06179221779387338 0.00512564427987448 0.052866010393803814 0.1933058364655005 0.19569830990557344 0.007259553514425757 -0.06780803981264641 0.026903880550161522 
-0.07276583667506571 -0.01814482560269172 0.005518046898414076 -0.01114219295884558 0.016929845573023843 0.06015459655302453 0.026214475846166048 -0.0022950339050433633 -0.011305980804591931 -0.017308578669345296 
-0.04930054046185747 -0.0922089727192598 -0.03594714408423677 0.011335308828411562 -0.0007342046424326006 -0.026802730101344388 -0.01618206657350324 0.05296476129648307 -0.008330332631169468 -0.024135735719663456 
-0.10292936665184005 -0.20482533215537085 0.03569996368672854 0.055744021212425304 0.05565240255507563 -0.028270047898115935 -0.0539685059563391 0.08698994440210046 0.08531402233670746 -0.062244295861448966 
-0.14277663040232838 -0.14787555817242737 -0.05938115151227414 -0.017904465189373844 0.07397144423500177 0.0351577727865657 -0.04912873656461216 0.010919805582403373 0.011117665027634352 -0.13139893607451397 
-0.15874574052727672 -0.3864501613481296 0.027873463871001918 0.042356153599862945 -0.009891147021022112 -0.13227308039543698 -0.19072698368118068 0.04511528513013889 0.08690403719210227 -0.11184434621567335 
-0.14616954451777467 -0.013129902256984197 -0.0501364690474465 -0.09177090671960234 -0.03962608557533553 4.3672826214709304e-05 -0.0394441936033579 -0.07242668600991227 -0.02961930995129409 -0.07564375081661749 
-0.14545180574401798 -0.2977145041689431 0.040672063176612254 -0.022627110251482598 -0.07021269502268508 -0.19198982325497385 -0.17398698850699557 -0.03854498762717805 0.030757726493824133 -0.06664144599709633 
-0.02635304069029126 -0.037524866137144564 0.0023161739376081313 -0.022357583771928827 0.028272657211614566 0.02134434577758684 0.03338754254504644 -0.015069900574867186 -0.045985210843629075 -0.0029104208594629482 
0.05479091798990251 -0.03684049623963357 0.01872299153201039 0.002437796246727514 -0.0005101190974074431 0.01907826551093623 0.009631140745785787 -0.006956710704833734 0.024194621619226187 0.020225361947149065 
0.10645223920795158 -0.15636863064911047 0.10351282708376919 -0.0561191640074416 -0.18814292933278332 -0.2326893114660553 -0.2292477713288068 -0.04600527453032126 0.03657770017593807 0.08885911579569539 
0.0931896792574278 -0.04917867345138979 0.07772296881908057 -0.0744512275860702 -0.14064593690822166 -0.2192852500785057 -0.1697536087454974 -0.07502220670053905 0.015711627231812478 0.054571269568843575 
0.11475252740676047 0.009678361009515538 0.06170457704816116 -0.03488051762574741 -0.08067696951230895 -0.15780204869005382 -0.11776751615943822 -0.061659638760329934 -0.01842156349452292 0.10132454574259217 
0.054398254473587315 0.010699609190329782 0.029607372766897077 0.016434883890265796 -0.04604707077597449 -0.049789700597366086 -0.02127239899067318 0.005360026659734651 0.038152066152203706 0.09024896985085357 
-0.1008533466439305 0.02414444169752786 -0.03827817113411855 0.0009627817788540587 0.06628726750658732 0.08550983750272018 0.062390862667727476 -0.002289101040286282 0.0036366440740114234 -0.06822458612656138 
-0.08815343177470769 0.04827482396560612 -0.011322858814190258 0.06115202267824729 0.1421036795851901 0.18046045718598144 0.14789425003147702 0.06831206408540529 -0.012385223397769202 -0.0449862283456696 
-0.09061668119160309 0.04954288858259849 -0.06719045541970253 -0.0028745017920438383 0.1265429184635367 0.1933168193949051 0.19230050345596109 0.04855473467456918 -0.0354078542923309 -0.043764476901387114 
-0.0901331966704749 -0.09205457569618943 0.008635537471725142 0.03828156310744524 0.14915656393077434 0.07814084913050548 0.01869589906880547 0.07083272455911803 0.050191207742898133 -0.05378774181222337 
-0.15690537254086723 -0.07768963120326715 -0.024501488490536714 0.0708115692109484 0.1995325656533522 0.13252075951342984 0.05002048069807176 0.12924271272027352 0.0442811672058962 -0.09794664481767708 
-0.05598444899861581 -0.09049186305518975 -0.030438594251616862 0.07971797101307829 0.17781194581335666 0.12611042988499632 0.0729042308649188 0.10057740872202438 0.08460107045968324 -0.06219162434544212 
-0.18032569989954747 -0.23587976297723526 -0.024619620865986524 0.038733049649220835 0.10860833479331033 0.06322622178855355 -0.03228065645407124 0.09895606343324474 0.1035287677663933 -0.13147738101340112 
-0.19852838940474815 -0.24604688323127608 -0.007931936245836605 0.020272710623462458 0.00763409711586845 -0.08150594966470764 -0.17150236399044191 0.05401398820083078 0.1035943881993662 -0.12917027906199535 
-0.20795881365194338 -0.1492211913897835 -0.027542239448967387 -0.011551045858038546 0.026065012611346656 -0.0015348301603000832 -0.03323386168405799 0.024992156745381175 0.029713156618442788 -0.15316871371888505 
-0.15003350333631202 -0.17893005165703946 -0.0300152203106639 -0.022405078640970515 -0.01829611808637846 0.010725393787505293 -0.027405795858954023 0.00464627102847949 0.024775079209054182 -0.14080320727131615 
-0.056649415034822875 0.03813723563704311 -0.0573105471358393 0.012685637401444983 0.14507390350551486 0.2428256857634136 0.1885622155404462 0.02309182181791988 -0.021476203868976897 -0.034922188035119615 
0.042961182429657074 0.027405632842154738 0.029780949411306844 0.024392041211303374 0.019590444887871258 -0.005554002656620705 0.0459947713547737 -0.0031107005543175442 -0.01774772258031651 0.00012656699496762093 
0.08310641141365108 -0.051962617899654145 0.06141133981932291 -0.03773521635713695 -0.07645451215466767 -0.10767926211563249 -0.06444878221860989 -0.03288646633800882 0.0009388502230086321 0.03610068641452598 
0.08220967826877958 0.02789570622759051 0.010712187734199716 -0.0458106831255933 -0.07614768152834385 -0.11765061655505966 -0.08380412021688093 -0.050825803340149744 0.0011829636475564785 0.06896015352972219 
0.08986199116000464 0.07564663669357569 0.05422048032420156 -0.021935218564892216 -0.1282809175619709 -0.10834107739680005 -0.05736970234463758 -0.05591877911016414 0.00572701407992615 0.09989749301863333 
0.06237734562414047 0.00858681155260772 0.042197818195004816 -0.023233986642014565 -0.011256480649559232 -0.06716149791816527 -0.0253097890998328 0.009875118551209735 -0.003329778590370396 0.06052177444323388 
-0.09665968701268864 0.05787830478260374 -0.055463438816364015 0.03224359602021409 0.18546884260667845 0.18781156150043424 0.1955791980083408 0.047670153955164135 0.0011113942784156464 -0.06298933429533295 
-0.10860368832045769 0.17434472319977973 -0.05531078165145586 0.04310121540184623 0.21498272594018422 0.3183305894279286 0.24918203290929616 0.05002937386858759 -0.046704561344077467 -0.06737621097846945 
-0.0966657739589353 0.06445911831821834 -0.08713476886739259 0.03753104935544156 0.22614521001877477 0.2665026544377251 0.189765099663753 0.05411102936694087 -0.019609858494217442 -0.07871063586921438 
-0.06310868480667514 0.06584786462271512 -0.05274268889964856 0.03818223114481224 0.20668892792031918 0.21838584168506803 0.18359338533776526 0.059908290109475404 -0.024897352455383475 -0.03901139092067722 
-0.03619703536268095 0.005628682666758492 0.0038001571400127186 0.05491181556388983 0.14832090176544382 0.13110297849040203 0.06473723413254678 0.10441755888014796 0.06471570671686647 -0.022589620261388586 
-0.13511179564968487 -0.2382710530548318 0.048443261657708035 0.09853001577449691 0.15771951473902215 0.05776013171195146 -0.07220962523792543 0.13821931233927645 0.12398662853392102 -0.07633360455909252 
-0.19794209250777348 -0.2637087297336428 0.00884934121763811 0.039786239224288866 0.02156687042619174 -0.09193290335107498 -0.18785268253393564 0.048813283616488706 0.10288657122907355 -0.10014369001738169 
-0.16181696172799329 -0.303691004869171 0.04283931700474574 0.0016596563773344335 -0.09186690187979074 -0.18481966846657114 -0.23304507142129824 0.013993761861913458 0.08310589244807376 -0.10801734132498939 
-0.07407762859001857 -0.11805612520476505 -0.017568414910981423 0.004923274105043057 -0.03722789921361335 -0.06620086829561783 -0.06349595916795221 -0.02153803035798235 0.015755684085260072 -0.07429656457615365 
-0.11036623350090669 -0.2554219655132441 -0.001069077691300633 -0.010635000808441836 -0.030965156006282857 -0.14231737978272382 -0.1226952073195108 -0.0074092528737568185 0.05178464252907994 -0.05418872237004808 
0.056160935890834304 0.07303923332574291 0.01295902067781853 0.01838842608731983 0.029020163557998413 0.06891350455306015 0.09702259881318528 -0.0027161022813701717 -0.0202141464091299 0.015208193590995104 
0.08835903018377085 0.11422858753662869 0.013870805040229002 -0.014990758332460873 -0.019937884215103834 0.021831476451755757 0.0616861676162794 -0.0511795190560454 -0.07892671449845443 0.028136375823947374 
-0.0028209977743159894 -0.056576557364690874 0.057931892827955876 -0.012295987623141172 -0.0710045877635336 -0.10271110955439566 -0.05105684039682238 -0.03545845080812218 0.00900166821025785 0.023318969247813473 
0.056043133655712465 0.04793354461750582 0.011532666884750143 -0.07406453796721543 -0.08973619377401029 -0.07201864952249341 -0.058434926825882076 -0.08584496964333 -0.011501935885477847 0.02561847194008994 
0.08074539915661337 0.07319786921846645 -0.02228547052045206 -0.0051398165220122635 -0.013940097127267917 0.033604303360298966 0.043505100540042585 -0.04229347096495293 -0.03681810327097441 0.036334220334640205 
0.07731599826428545 0.0796359041591346 0.015224448614739854 -0.03318251959415376 -0.03943772455641156 -0.05955223460274466 -0.01233167737300274 -0.04632942595098186 -0.01009363868848741 0.042624408591282956 
-0.09770853168936106 0.20553687222916395 -0.09811103005806122 0.04885909973863701 0.2800123481595494 0.36665385372286785 0.28888361357888637 0.07652999237599444 -0.0655647564022358 -0.0431287854265316 
-0.05991496240036631 0.21635032615701177 -0.12139243985423287 0.05643323457081201 0.3143938272079226 0.3846717595379069 0.3161524356426575 0.06438400519499679 -0.08511525916123941 -0.08519140820043954 
-0.13113951897147563 0.10987379131970007 -0.10184061647155694 0.03967894857726509 0.2390506781876402 0.3052499751628207 0.25781170590910313 0.06499537134423329 -0.014981923440598266 -0.10002202112530685 
-0.1174723291334015 0.05698996923106958 -0.06718509666115131 0.03412692482659763 0.1967361735710029 0.2544931883132952 0.20562246677182616 0.07985096109274953 -0.013574640843267186 -0.06855968269544006 
-0.10012443118735626 -0.0852080068216392 0.0005583970501809689 0.033189977834143396 0.0756355122066354 0.040469355966389356 -0.003941778005399985 0.0421601602698066 0.05899782177592877 -0.025818803267346684 
-0.07087589490784252 -0.10997607394581227 0.013056842889349099 0.04376139960078197 0.05781032394690383 0.03135255210471164 -0.008099903603844985 0.07364563349700265 0.06527058932972205 -0.03092982704333358 
-0.18271463147079448 -0.4213976268754316 0.08489613383224837 0.0176200831582225 -0.09990501396411323 -0.26275826963628285 -0.30060405373405286 0.059724476369387464 0.17809574948133958 -0.09936993302060161 
-0.0721414670918194 -0.15174133957722644 0.008535909704176425 -0.045475957864500524 -0.08129430218794333 -0.10889661243089241 -0.13647294943027335 -0.03230926962490306 0.05657471493467265 -0.05919029678666758 
-0.08723446921523076 -0.11065758203462356 -0.007240684324843018 0.0034458557328892756 -0.009285667320840359 -0.044082520874498404 -0.06843322937176449 0.027089582266085606 -0.00271360636277548 -0.07263818446963029 
-0.035544878213531916 -0.07575457542242064 0.014481753027734627 0.03443820497610457 0.02087285533919096 -0.02187412407534306 -0.040769918870826 0.0256714774297698 0.0362855523219087 -0.014831058654676365 
0.09582236765522324 0.11995020651424732 -0.03208775626987736 -0.022260138398368795 0.050308152773308426 0.06257949577491384 0.04991501126160726 -0.015671267365845606 -0.03334269866940526 0.018028140074750912 
0.05254701431552904 0.10863610195798923 -0.01748149270184808 0.0026248045635371073 0.06665699603508851 0.11795040641159486 0.10600113884100444 0.006465045943986943 -0.031725500214488354 0.039499141932162626 
-0.011254907298595277 -0.02073436165467027 0.055441425444098864 0.010162857176982594 -0.008132635940693645 -0.03322059814146805 0.009530466793717461 -0.018150713402128437 0.02122293707184092 -0.00017230644949387777 
-0.020227386824088266 0.015950039537736965 0.06369246352032898 -0.005141168434355598 -0.023268564679866453 -0.06071409703503419 -0.05266236701235059 0.016823524896542992 0.02875700764199674 0.03720695632583558 
0.04934673065474443 0.038408475573236 0.0012673197411717536 -0.028271319472150246 -0.026065469838607802 -0.01958827297357545 -0.009924506597529493 -0.04723911015591773 -0.0346479387280182 0.020903141260905 
0.07503539915661336 0.10132786921846647 -0.01202547052045206 0.004320183477987733 0.004999902872732071 0.018044303360298962 0.03638510054004259 -0.00014347096495292457 -0.015478103270974408 0.050864220334640206 
-0.10518718208280727 0.11019133974080902 -0.058904217774968855 0.049293319477194224 0.2149741041756802 0.23677635019981813 0.19857529287249126 0.0769545754487923 -0.013390694360555025 -0.05855317485137658 
-0.12280455150169543 0.11434601124434178 -0.08713316334623775 0.0643954056990435 0.2576973228694984 0.29065597975190427 0.2212878492061931 0.07089770904209686 -0.032330865982195596 -0.1079382461436607 
-0.165860691988019 -0.07849073549831284 -0.05058801432479496 0.08070998718248262 0.22659044720940363 0.24286250872276519 0.1492320750100589 0.11218100874952723 0.052403136394686266 -0.12583925067516624 
-0.12079023867600161 0.05259364400376561 -0.05393928148162356 0.043068756081882105 0.22164649122542734 0.30062330032672346 0.23333374642476762 0.04537242011377509 -0.0033436661267512366 -0.0707094930367829 
-0.150810806780384 -0.13181004310141334 -0.017321383421584957 0.026559867255985088 0.0982467036162639 0.12416120145818438 0.03667651842036892 0.08995532072863949 0.05642481214972006 -0.09075573348347396 
-0.11867701726164656 -0.21077557169567246 0.01709472803008887 0.033044309886129594 -0.023167428647539293 -0.0756056799559495 -0.13718985181251056 0.026733944013236925 0.10122031223102468 -0.07667834293880739 
-0.11245565571523436 -0.2138992535985229 0.03560022009707873 -0.015360051971898665 -0.052991063840757344 -0.12662788267479483 -0.1510944519323986 0.029694640384533542 0.07900096832493694 -0.05936992057294836 
-0.10986451188105195 -0.110091856292627 -2.976144168286704e-05 -0.0012406933894703633 -0.0304460816113517 -0.012086618569233015 -0.06459277789654637 -0.010012133845815663 0.03655395070910743 -0.05308736230211552 
-0.09055990128187613 -0.14417355997841103 -0.014187310303622 -0.014103876201592053 -0.010481567496798988 -0.03491540683094249 -0.0553945632094123 0.03427527793667147 0.01523723867713549 -0.05159253632936003 
0.047686839271894176 -0.11893946325894533 0.05774797578746005 -0.0022766732411371657 -0.03916816233796309 -0.0936156008717233 -0.10279923310749908 0.038627261551743335 0.06899464256539417 0.036326216268282176 
0.056597342636942286 0.01507025732332472 0.01159370940273211 -0.006181065794845331 -0.005313367128939681 -0.03442164524839032 -0.035672438534156636 0.010707326433992675 0.009813822885616386 0.04353574622386673 
-0.03192076637914561 0.031055319340942758 0.00029817253242638356 0.0253342336099991 0.07842577916185665 0.0743299294941692 0.0887691549976404 0.008440224589328695 -0.01317017497584682 -0.022087973157362464 
-0.07425820199674804 -0.022070601544937677 0.017323787137228545 -0.0005668867519970575 0.004790124002361992 0.003036602414862914 -0.02473635811598012 0.03239337189644467 0.018517401842678798 0.004964173774747848 
-0.02921187977019601 0.05262318350395798 -0.0002110567314350404 0.006015930648639667 0.04177867995625726 0.07888902982744289 0.047880196974024944 0.005840127094532351 -0.01401022087174849 0.0061219342471849495 
0.03657018604167731 0.08084631396315131 -0.011402201108277814 -0.01260517431377237 -0.04632398208427421 0.0045336940589908 0.026484686793469353 -0.02941827645909797 -0.0592728382610525 0.017541459671272755 
0.07924550018492113 0.1269849600504498 -0.004658736954337937 -0.012036705543708634 0.011141262010443907 0.04319194145572606 0.07299566159929924 -0.015829178178266064 -0.04455071752655991 0.03614805545040692 
-0.029500518789005788 0.08947163978146358 -0.03255237631501315 -0.018737631883326864 0.039341184525126964 0.06443448197861322 0.06599347028627928 -0.003696963047732692 -0.03205994019976985 0.004436433480071599 
-0.02772663213343423 -0.003366477428763004 0.02911110409357926 0.03379998207186252 0.039444706117177306 0.03989301254867769 -0.005742109222728949 0.04613582737845277 0.0350013683786403 -0.022052632489287828 
-0.04982357128130949 -0.008931366046741447 -0.054560358781231943 0.003512580466028141 0.1287100715700112 0.1406062712489144 0.07191919409734815 0.03288503653682194 -0.025877592084289316 -0.06592504414132594 
-0.08775963163688943 0.07827115184015286 -0.0615892993783711 0.02432965004970572 0.10987945635918844 0.18665161436956482 0.13307021853313444 0.0059008329974121025 -0.02076120647393444 -0.03325867107554924 
-0.12946930343657503 0.06114351404100581 -0.05863645917200015 0.005861741609259544 0.13769383511814318 0.2287936156989184 0.13162345919882584 -0.0022229283761981064 -0.032553366135532155 -0.120974138029596 
-0.08241611433345397 -0.07772264370954116 -0.0018323076371209832 -0.009770219850126535 -0.02596312707284874 -0.02852612017563274 -0.057348612628213794 -0.018427279104082057 0.0060071535245107555 -0.08214285361950635 
-0.05030126991478961 -0.1548787598226492 0.023948100479798787 0.008419250704658869 -0.10534348985540398 -0.15897926372461346 -0.16915597986852557 0.010585041239381664 0.041404029868105464 -0.04022844394550263 
-0.05400993209306575 -0.1134327238496608 -0.017299766037300147 0.03441944233248982 0.021199008613168525 -0.0049420778587144255 -0.05532509192414907 0.02772369903629266 0.04275868861386098 -0.07616163447980534 
-0.052643686692874114 -0.06552509992172922 -0.019661812750973954 0.034571128535421616 0.13634915073389986 0.11675170435907324 0.04348452049948448 0.08544753386444462 0.009991331973636521 -0.05062346621890565 
0.009762640341276982 -0.13346968765027262 0.06345061091151456 0.010593864005306455 -0.0438781915217777 -0.09589175886169155 -0.15652702320701095 0.024478387681302245 0.06394067128102954 0.018466242864502286 
0.06131776444209929 -0.11005053125324005 0.05319681418495931 0.019920780083736142 -0.021038461322749738 -0.10885004988692831 -0.09439967085434024 0.00971182748206435 0.06996820238279425 0.05412417142585383 
-0.04224090384323704 -0.10500907924519332 0.02995359634022765 0.012943398071327467 0.03865128551551978 -0.009545848158067367 -0.04143604788300248 0.028472024682469767 0.062161315817364365 -0.009446279024512177 
-0.0656981719980073 -0.08191735030620088 0.04105815105622281 0.02253872523220301 0.06826331007780721 0.009582318688368452 -0.020807926315693774 0.04461446357974693 0.049023488763346126 -0.0011061067090883097 
-0.08134572645044787 -0.18202639912431837 0.07340373514058246 0.016170105405546337 -0.001449917843787796 -0.11178271473263983 -0.11022726253828359 0.07039091717843506 0.11765372464548779 -0.009615270535840771 
-0.04313579377885165 -0.12544049663569495 0.0507074334697254 -0.0040007212482722765 -0.049562943573593775 -0.10300220521526052 -0.11589409821932853 -0.0013651294612007352 0.05251118028032544 -0.012687669026527366 
0.005272171267753047 -0.051545052706232955 0.006687589765634246 -0.015851116472673947 -0.06476573672911601 -0.059708083835670986 -0.08242436735576106 -0.01041158086136785 0.047832180643191245 -0.007585736624167744 
0.12501660232709663 0.09626590176176372 0.04638787497574899 -0.037735205966535214 -0.05628945075588386 -0.07373314506844467 -0.05509031888215656 -0.04464479523639548 -0.01290316694759042 0.06960207024645741 
0.07834678138730453 0.006356674161320089 0.015901551340988862 -0.01930140772005395 -0.004302748528837108 -0.05232189851784737 -0.07071155165601442 0.014075392386897787 0.0312601080720239 0.012636402606467057 
0.06308252029117263 0.1540685209444918 -0.022270946578951623 0.00680995445929431 0.040087346932873635 0.11281549150719676 0.14937310268576917 0.011510149752655945 -0.04871244257252368 0.033131601293639235 
-0.0003720964859707252 0.30748129213807174 -0.12023554239810397 -0.04182030497756212 0.028600528693508927 0.16779337933692404 0.1838253689742474 -0.08762678068007448 -0.10891474729497108 -0.035381940399447115 
-0.07628182102898382 0.22643033548203712 -0.14697242355813922 -0.045042712136660945 0.05532599114839602 0.2257080673570895 0.19816403500971108 -0.05679892493597896 -0.14499571203023803 -0.10125653769783673 
-0.16522175216014454 0.23374065293178975 -0.208055176466249 -0.015467522396337184 0.1683195075574478 0.33610296342717405 0.3021708862467937 -0.007540376445449252 -0.13568113641442364 -0.1546688858901214 
-0.1465713517462334 0.05745691896039492 -0.14131088262062386 -0.05385107885863681 0.07167298328655827 0.17886465814503097 0.12304400117366518 -0.02006296745098543 -0.09864025877308047 -0.12967827570669124 
-0.20500010036459448 0.04444482614419464 -0.1501709827677219 -0.04030780616532165 0.14889454094783505 0.1892939325899254 0.16171940716070102 0.01105769393386367 -0.062361060212064744 -0.13038931007169036 
-0.06468428930848288 -0.05922713128751422 -0.033422542347247494 -0.06755044093699629 -0.059523703672310774 -0.12526281863330466 -0.07910297159413306 -0.052928230529434114 -0.07586899450064934 -0.07092338033169183 
-0.04544657513896765 -0.006910317998390397 -0.0029437260297248014 0.0015637990028589165 0.09507548361706697 0.037336460545520825 0.038656347670578364 0.023776782682514958 0.0049045377489283955 -0.01458332709567235 
-0.048849545809121285 -0.05444331958186614 0.009464037868603227 -0.03705143602375528 0.023139598643576793 0.005064906814760406 -0.0006553124068018456 -0.0036880539233362895 -0.0011560474720352404 -0.041117151074387376 
-0.07887385924175885 -0.04634989178953915 0.03531223174625078 -0.016618455485569297 0.03572944179135852 -0.024718069357758405 -0.027031121098509952 0.02532459012142519 -0.008251185442785254 -0.036067873048095736 
-0.048485200696537556 -0.0966609550378587 0.036602513219366764 -0.020096450392481896 -0.03769902673372956 -0.03037834907244472 -0.024741669467939056 -0.010266892408660024 0.04918099932269511 -0.017438800930354947 
-0.026957281625848855 -0.012981898123980193 -0.021325707831094547 -0.003570632808213065 -0.04613585855718526 -0.0011603943571622255 -0.01368811015162031 -0.039173832491765245 -0.00042130588346668205 -0.02827617230685889 
-0.012206557156699544 -0.03767193960955288 0.035469417339418365 -0.016886988893998957 -0.06817012898696498 -0.056987249594489225 -0.06384021226647169 -0.019600133579177823 -0.0024792701850670958 -0.01224723725143465 
0.03949389405920309 0.07440729788689762 -0.022224890995309863 -0.02089293933809646 -0.0015839993947443908 0.004509117357971083 0.033384291627976515 -0.011378843833055144 -0.014406700798054482 -0.0047479293252449895 
0.035195892283698474 -0.09068756772945366 0.07751819366747643 0.02118312138907006 -0.015732211291719866 -0.08013500641953608 -0.050574033742117254 0.044292403144357055 0.03554521423785155 0.04985484857653989 
0.11541802754623054 0.12022980492029006 0.01915422864710415 0.004124694869057706 -0.021694007317346962 -0.010267188134890502 0.05620210011695346 -0.005227082686627476 -0.0050988134548661385 0.08218964672990221 
0.05514005176019751 0.20879068313963448 0.021167954465686215 0.009533554360669622 0.004565119625852383 0.045961188413424975 0.1098959531285662 0.01983902808749709 -0.011947903734728944 0.0680203566644562 
0.10544760356221936 0.13759639601087942 0.05216113570295115 0.012849113245552383 -0.03492867159790186 -0.04108599527746459 -0.006752365324403875 0.015033723230491274 0.006641360580617983 0.06246226770258542 
-0.04907611903652834 0.15157627777581303 -0.09570297451837667 -0.006081029113079855 0.05124618976388963 0.17550036961906626 0.12126249878129644 0.012014869764743499 -0.05902377315902816 -0.03321956734469902 
-0.022216213977100253 0.3721440662609512 -0.1252541951601444 -0.06528592740500347 0.08861617600522782 0.291558831279601 0.31119869377011405 -0.08110425271941905 -0.16942199536253572 -0.013588875421215566 
0.035036690707435224 0.2745200959780729 -0.1265779777955414 -0.04952493810005483 0.013957648949517188 0.16648857576309012 0.17343670347097084 -0.0516848826741091 -0.11636365383896197 -0.034964740383282844 
0.025020655591802828 0.04474424499406265 -0.02079019853470411 -0.028948448644158895 -0.03386206403900406 -0.05516851663655001 -0.06332900511825046 -0.02637144004760625 -0.023222110731598054 0.0035301008181715604 
-0.006342236653620647 0.04210566045140958 -0.030773868677848724 -0.04386013387875857 -0.022851756426982915 -0.007766766018064752 -0.0022465068107370006 -0.00477273607724036 -0.043818425331861005 0.00650810391264055 
0.011058570748723231 0.22679552916084128 -0.1031070385483941 -0.037189057807907856 0.04142757661161313 0.167099284545424 0.2035712309792421 -0.030868961454930652 -0.10033204521539346 1.5149393830091477e-05 
0.032865369424684966 0.06634153117671823 -0.025390714166424126 -0.004951235046282651 0.009100081011469604 0.027144115355083147 0.0344649343140231 -0.03731698048425479 -0.01458894425421172 0.017012128242451477 
-0.007062846901146734 0.08232258394820743 -0.03177360141921559 0.012322875437507987 0.001995237436366405 0.05041089579459785 0.09433103385715216 -0.0335949786368563 -0.04207639339143719 0.02512316245009849 
0.04006399017769943 0.09137489864894538 -0.01687836753689115 -0.03051338738511805 0.009008058069030043 0.025225607502862603 0.028581867971911593 -0.0015910711044387852 -0.043684773756070126 0.016954049013559278 
0.06281326700498449 0.10222626156891623 0.023440153270414515 -0.037220082673895746 -0.05977871619642022 0.0017255151226843873 -0.00394571348906321 -0.0360775174113477 -0.013009366662576717 0.022163412458987203 
0.006936438645754074 0.03258865484068731 -0.014892464229541918 -0.03344926806976336 -0.03886975496630157 -0.028298588360090762 0.004242112603672257 -0.024459805942532113 -0.02551257511921947 0.029958697000870047 
0.04005 0.01716 0.02935 0.03176 0.03053 0.02309 0.03479 0.02636 0.03476 0.02053 
