0.35066874456562996 0.16991497456389815 0.10487506030020043 0.1116162321885568 0.024509042813067317 -0.055325089987609724 0.08445923835763244 0.08649807874008815 0.22498918914350585 0.23116863944937924 
0.02984 0.01944 0.0423 0.03753 0.03769 0.0188 0.03485 0.03788 0.02375 0.0001 
0.01988 0.04993 0.01997 0.01371 0.01812 0.02782 0.04035 0.00243 0.00402 0.0147 
0.06657212109223962 0.018298196004784432 0.03094161659339028 0.001842546074803545 0.044224330238228984 0.0702832465099603 -0.00040603538317973004 0.031068914884455977 0.003054225339666372 0.013002230544103377 
-0.011122102649680766 -0.014518116416450573 -0.011272788685003882 -0.005425948004801064 0.025004695414094023 0.030654220083790276 -0.005586312912917199 0.02318118529146235 0.004787653204067657 -0.029112758020802935 
0.03142205620748313 -0.0010529969949614913 0.00882059926957895 -0.01593593315924309 -0.03490387562795357 -0.03787619284366311 0.00038072845204720424 -0.0006987473882728397 0.0387276352474473 0.059677755735599095 
-0.1459310387564673 0.00012685723951427232 -0.025403408188420778 -0.014506277999981443 -0.009560015390620444 0.007719577221082161 0.013020027972244186 -0.019638405542025793 0.07247980184514762 -0.0316807240339356 
-0.0007180461029884372 0.040915325214014954 0.009551264928840248 0.0042425860040785504 -0.050315480886778806 -0.09454325651773018 -0.020580352161449142 -0.024228422316366183 0.07327860347802041 0.07210885293922262 
0.05177350533841862 0.028641138134779805 -0.030474364517547918 -0.001813909935361288 -0.07075620830306416 -0.09082782689224222 -0.02693675733786614 -0.053725755121075025 0.09729131199759072 0.09206494996830368 
0.14757032002165338 0.011043566857952426 -0.014968781557723406 -0.05520573352187088 -0.09436505227236544 -0.11998069251740483 -0.053878496849156444 -0.09409253679851892 -0.012281288210696548 0.14930306443161795 
0.015095684517133773 -0.028913008767917754 -0.0566612837251774 -0.07531965170400044 -0.12614427275745124 -0.16032547408874728 -0.10076657900405601 -0.10985462380303124 0.013459572909738645 0.050837703960150235 
0.19098967487678542 0.016428829880952935 -0.0590752917850792 -0.06616640540208565 -0.18675014893217529 -0.2269634262008879 -0.1279977195920542 -0.13042410051680964 0.1330011231513641 0.14966364100479196 
0.03501477454655478 -0.0022214574872631713 -0.06552971482511488 -0.04904261056283908 -0.14572312657867748 -0.21930938418275348 -0.12542496822003665 -0.11701839005961434 0.09901175142543306 0.06457620195624274 
-0.04084687441081513 -0.020058465132854003 -0.08982196386450016 -0.059540584824303563 -0.15679262238937786 -0.1707448092136709 -0.11127785462780512 -0.07841127504010773 0.06126322501885975 -0.003534189182603998 
0.022426849243210277 -0.02499323088745342 -0.05584102744594664 -0.006652981961956799 -0.03569332634874609 -0.06611384028026081 -0.02399283941910448 -0.03074618376343154 0.012059071822906865 -0.03462940252884507 
-0.03299905692149288 -0.012319749822189963 -0.055042370652988844 -0.004258736243996812 -0.009633507843604339 -0.026047956413864124 -0.010073517722687962 -0.00021379143427832127 0.0063978055272506 -0.05119186758877513 
0.05534880705687817 -0.004897241709153501 0.02573229608849981 0.0021102667103533976 0.005806050892497346 0.00887947852980574 -0.006995508491833554 -0.0032709068880118963 -0.07574806351446224 0.028816227036094443 
0.039111173522154 0.03613153150343795 0.01568665998990546 0.031912500805887485 0.03320538123397925 -0.0023821555789778027 0.024080666507900396 0.0008789984820243985 0.04720574393059538 0.067551918950461 
0.07161781349518269 0.04162077250951017 0.00450936492237794 0.011688036406809012 -0.02386962967018877 -0.01859921557527781 -0.020652305002250584 -0.011176587447784388 0.04208861719832449 0.06810231783184015 
0.06273915314818755 0.03331234493305296 -0.02101802214009661 -0.022217464929768414 -0.044361525395450505 -0.10221805939618113 -0.05084533427160462 -0.027721540296716463 0.10853282577517802 0.06546597474357783 
-0.12150103875646734 0.00605685723951427 -0.03180340818842078 0.019863722000018548 -0.017540015390620445 0.020369577221082156 -0.005109972027755807 0.02063159445797421 0.041909801845147615 -0.0495007240339356 
-0.12194916173599682 0.051116647965207554 -0.007522870594175983 -0.0014985115857869364 -0.007058180566791791 -0.060498843979883886 -0.030208216039495667 -0.003345075184459121 0.11153943017506944 -0.014398107252567884 
-0.24959456487617518 0.05358835770235739 -0.07043663958050149 0.008700625046826536 -0.006414642578067682 -0.022790809685131738 0.03989508734011623 0.07821475776391874 0.143947829448886 -0.12132666931779448 
0.06506192781676845 0.06232134033995338 -0.024898559513420977 0.033390980620240554 -0.02433981114813325 -0.014488404149880611 0.005961274436794272 0.03128750655360471 0.07315442986106897 0.026289920813503724 
0.19177135533045825 0.01041349903738021 0.007758548991219749 -0.014260364623452617 -0.07070760229773311 -0.080153478162281 -0.015790855819688414 -0.0398045812739167 0.06944262410896283 0.12707517112695282 
0.1787496657291694 0.02947304802802111 -0.012918706473068404 0.009269713322245295 -0.023202156812465055 -0.0897211420654214 -0.05038593536430951 -0.04222012853067554 0.028286565176422283 0.10419492938582663 
-0.04802848420476054 -0.003884896968135195 -0.018830373662523187 -0.028262455741679814 -0.028415977144789557 -0.03735867073673843 -0.036793703182664075 0.003339422561644955 0.035220107168323356 -0.04223775070799402 
-0.03462861839490666 -0.023312326908121402 0.04616362599879713 -0.02754319793536518 0.03392797374821752 0.047076245162222335 0.008834697895921544 -0.0015431363951942632 -0.056408990055013035 0.011551454190562908 
-0.023183873893170667 -0.035746029673514486 -0.021708939190981616 -0.06290405794298916 -0.053199076862178896 -0.03984086839848183 -0.04485555595776123 -0.04636631611649238 0.02760186558460969 0.05928829217299776 
-0.07044554568669513 -0.059696345719182954 -0.027839258907734962 -0.0667542890695038 -0.023532549975150748 0.024016437298989116 -0.01734108798941032 -0.026828783908050546 -0.06378141919852778 0.01637912203234574 
-0.21416289978274555 -0.008239155591759528 -0.06720091569082091 -0.07072306770356387 -0.016233227018566797 -0.020280804779175474 -0.007620157747811954 0.0223390907282803 0.023619640513979967 -0.1766561742862256 
0.059095446297098515 0.005732291209121469 -0.022710373808003816 -0.035614069433362976 -0.044678930664620864 -0.028909979436231036 -0.025804316621511746 -0.02370778567501892 0.0010310343531763945 -0.011974776535626563 
0.12927183549142254 -0.016283833666381083 0.006544799889197763 -0.010836147335773892 -0.03926848142050752 -0.05096217863057896 -0.040862478212907595 -0.027623570094413085 0.012981245657959672 0.04456797591331481 
0.04923995394419175 0.05755138685978687 0.026208066588489592 0.0009875619991889318 -0.012185381530451544 -0.024909518154882695 0.01413740660679028 0.006693373534317353 0.10251053032502479 0.04496325853961078 
-0.028517752903371836 0.02747069679914534 0.0162116003704586 -0.0007563034591295357 -0.017780069022323743 -0.046740724366595744 -0.03239463206631069 -0.021182457202822063 0.1186461133659264 0.061325611048427126 
0.017952919525222634 0.06244775204881372 -0.04916380251765262 0.002050634733789413 -0.0798083665635873 -0.16907001967258045 -0.031794342100518666 -0.04136042475297359 0.19117695102959387 0.07698524407388184 
-0.15752558161168875 0.04886775777928073 -0.026098434600246596 0.0007054316250295555 -0.008961671019724497 -0.05121965812614473 -0.012579992367200301 0.03412157723260968 0.07198460916569165 -0.06869819966539284 
-0.21985420953586102 0.041520279145460116 -0.0700692703405978 0.03463089252820875 0.033936323692061794 0.03377145892592812 0.044843219756368485 0.10788740220936902 0.1560967376119204 -0.16266887231230362 
-0.10308807535965542 0.05760348308590819 -0.006814300188797628 0.019270448563661606 0.04732124383863654 0.061483680748796316 0.05684066515013406 0.059505924000346856 0.07368180290623318 -0.08902484831061613 
-0.11479677707069047 -0.0334062679749788 0.011628017972649271 0.0035939888786547256 0.06133610530618824 0.07471293240744958 0.03227769459576012 0.04931715073101133 -0.05046130414618112 -0.1273353175721771 
0.06840010398687787 -0.019379311180488953 0.01560066018655742 -0.023419656435666125 0.017821971560537345 -0.003223062344269483 -0.003633992528357846 -0.04895099085062187 -0.0013569270222332482 0.08111374566953486 
0.16896991802831637 0.0035350143324358978 0.04662316104230462 -0.0018490470180705352 0.015350346167507255 0.002046206109232042 -0.027056918763499867 -0.06440057493703219 -0.009351358096234719 0.1271550790075401 
-0.13436545854490084 -0.04928587396414587 0.02522441488775464 -0.03193609665346032 0.04377643436350968 0.12493178476415857 0.00771723165749866 0.0278104334461842 -0.04323180042548593 -0.0746085021284325 
-0.2789820519061275 -0.06032954948283417 0.01440114961379229 -0.001304742374220593 0.09368824497619928 0.15428224577283817 0.053809923816440605 0.02389071746184453 -0.07016953864348247 -0.1873645636657538 
-0.2653238427632528 -0.03581660169302901 0.003304801022630647 -0.008452882439012863 0.05029086104313073 0.1463217717538969 0.006720300431279697 0.032739835850687196 -0.07264001805135134 -0.16327119998814413 
-0.19970680196984317 -0.07032161465271292 -0.027940896823882143 -0.028178185397836918 -0.0010757412529769556 0.027435707890292527 -0.043852720940689795 0.017669581257262118 -0.09347402735215132 -0.038557723175063396 
-0.031855099918415494 -0.03176325629620042 -0.07451697947014935 -0.07081305399766519 -0.0496783417051068 -0.05893671638256683 -0.05107529233962028 -0.028018000670046225 0.024874043522635263 -0.02767046951922268 
0.03982917486556908 -0.012302945075966683 -0.03611663284913685 -0.025480709344580254 -0.052735822019451144 -0.057304527494613546 -0.04347723086271357 -0.04566112813750284 0.03653615482729563 -0.01884392323252074 
0.3415995862631568 0.017661380458955604 -0.00016178263676860233 -0.014727503672790677 -0.08574223348463125 -0.10461626113853256 -0.0317552309124486 -0.08707367313922033 0.06769802623785891 0.18699603954043367 
0.11298723533142205 0.03363202381083063 -0.009085117557011111 -6.893414808246349e-06 -0.03551165960292395 -0.05318771879044005 -0.024260723012495777 -0.05140433312795155 0.08475958259428114 0.1301853047502312 
0.1919936802936874 0.03508117456246138 -0.003650368139915097 -0.002181957467169993 -0.09763908785516795 -0.18420239639198907 -0.0949687064941488 -0.10277380755118741 0.13693816372971612 0.1624757249409541 
-0.03140483625811277 0.010340997423121787 -0.027720267087711917 -0.0228767586683131 -0.09003181253647444 -0.1022167669917298 -0.04746694077917296 -0.03170526168864106 0.10945554868201272 0.045087262339663266 
-0.12115516860812764 0.019021829436823894 -0.021314921164883215 0.015522661671638443 -0.003218460277133687 -0.011023539670957101 0.011545797661104406 0.01098083288013818 0.07652785815575615 -0.06326348025250847 
0.03469729278496278 0.017314916281318204 0.018454339077048028 -0.004196263962224986 -0.019822803479033205 -0.009149918491863182 0.04080186088384198 0.04922821237146484 0.030922608445489164 0.031013309597264102 
0.017880478922657768 0.027896949940667527 0.03645290110862648 0.02384966053215546 0.05347130793269282 0.07253233099481668 0.026144259476251798 0.004838974689221998 0.007456352952674841 0.012591443193927028 
0.031527978852771275 -0.039381626736309946 0.04462632518889275 0.007638469824910065 0.07165619831457284 0.12324885588855466 0.016875798006909762 -0.01659707687283713 -0.13948419014722457 -0.01951514903546018 
0.1019612646278459 0.010807678883773026 0.0322017489714355 0.003072321723183742 0.03866277321018574 0.07511697567280029 0.021799657263714467 0.014162003247611746 -0.0628099809694687 0.025252479389204975 
0.021016830985393996 -0.05749981521689231 0.028577538147153102 -0.00430791197609842 0.05187088032321867 0.050762930817365215 0.008536500949138316 -0.048382886280779816 -0.10959915256685417 0.029413635462364383 
-0.2246581799224561 -0.03741931512576169 0.019812527101896446 -0.010295857465051985 0.10269120458316683 0.16705334595713253 0.03702773906535768 0.019201135019962057 -0.05834695881208193 -0.17876573709825241 
-0.2239948261877234 -0.04922815627719014 0.00028323373330893607 -0.0030025308818019893 0.07169276388298895 0.13453688453909293 0.04155796466126867 0.024246506316020208 -0.08771885556768352 -0.14691913937141993 
-0.027119825766522058 -0.04614535596081547 0.008000001828454024 -0.05659119385417417 -0.044174446976913244 0.011699391291756765 -0.05598415938461728 -0.06426629321323979 -0.1257128669167966 0.06439740663509236 
-0.16039513034465702 -0.044192117502792554 -0.018312340026500652 -0.040071384954551384 -0.024840825091902538 -0.02642157081696884 -0.025238154389269577 -0.03952926073591027 -0.051746149722944584 -0.014801043543240435 
-0.15840882399688777 -0.005439973064280671 -0.11867885191410851 -0.034080357510755395 -0.07559335330388765 -0.08749181766883632 -0.05123813659276224 0.008381771489938857 0.1291118057337838 -0.13084810519419235 
0.10720715683107515 0.012426603142553472 -0.03890634466566432 -0.05440887773148899 -0.04822933950596753 -0.09533586163232959 -0.060944347300399535 -0.009187276630635073 0.025247937736703065 0.0010363000931729559 
0.24384777321033052 0.03932819772805359 0.05706261178392499 0.02272092966470045 -0.010863994779278423 0.008959898058430808 -0.015749076577574128 -0.005034637631350054 -0.014032549652699348 0.11982750324052788 
0.09576984330115032 0.05288811730678465 -0.021031381046212896 0.009925591749624424 -0.07212622148723422 -0.13540969294881808 -0.01713149116177833 -0.021859353629025215 0.19030238657415643 0.10510796669965469 
-0.0039176932785104646 0.04800133362438024 -0.10132186737971782 -0.012060608718017549 -0.1337337456504404 -0.19291521178752924 -0.06111230141288417 -0.03666364002591442 0.22409433335481055 0.01717353118931305 
0.016481804821371786 0.021443078935205077 -0.041799071764715236 -0.02371926511905919 -0.08484293216041011 -0.16461374629852943 -0.07773760749251743 -0.04311932759243047 0.11734292615644039 0.07999459622258495 
-0.1828125466445034 -0.00017131987404517789 -0.06408550725888373 -0.03436832792310131 -0.04236824628371776 -0.08131853417495546 -0.005719843149135864 0.014368077856205828 0.07283922038408137 -0.09385923061176465 
0.25300069766774985 0.006176719619541611 0.02877310661267036 0.003149459639163992 -0.02906230095821923 -0.03043611705893369 -0.048309892186423606 -0.05171113496246703 -0.07519787284500175 0.20426941648786184 
0.25840126532429186 -0.010960031977712791 0.030756049490396942 0.0034400164572575736 0.004526854324924726 -0.042665008350335785 -0.007578792469555054 -0.07485873965987336 -0.05408391018273678 0.15358371181130526 
0.17086458346010372 -0.01131403773704049 0.05147679139204784 -0.009032994389616772 0.03352850963261031 0.008220718909670077 -0.04017943046884925 -0.060780627147769245 -0.09965636345759829 0.060919232344305525 
-0.09370371362741395 -0.038615510513438756 0.033839501697264365 0.0013829294070757492 0.07500422610943717 0.10773478461091796 0.005710921840652407 0.029239490665989198 -0.07901801583274705 -0.045319910569944055 
-0.10379249829666232 -0.027270151295889018 -0.016602740761777625 -0.026864849658276027 0.018238171195308624 0.020581746939652704 0.01355084818831524 0.012430256162925705 -0.020690587280251093 -0.09233860413097982 
-0.2837387563928278 -0.04805161756692302 -0.015564814694755909 -0.048145020608727544 0.04430631340365229 0.10990344003034562 0.0018228338444719412 0.006775886591171612 -0.10335382051750117 -0.19984879574439518 
-0.10503483641120288 -0.009299517261509346 -0.01901358908081343 -0.04652032911715985 -0.006348096742368341 -0.001127399105273878 -0.016520943367720232 -0.0668279194724252 -0.05440647300868383 -0.028120929380966553 
-0.2748626782365129 -0.03860471712114716 -0.08588662405830955 -0.07000476403480305 -0.04030119563929764 0.046214529507621956 -0.008144862179446849 -0.03150690698654142 -0.08687454691893046 -0.1377821778115557 
-0.21231057380080726 0.0012745847273632717 -0.061679260426863364 -0.05036651553603549 -0.03896012229808347 -0.03320969291351028 -0.036625562542759345 0.0045656678564077935 0.04866775365988543 -0.11182607874035119 
-0.09071364759810002 0.013047775629944231 -0.09499323211519359 -0.047413215270722356 -0.023338751548197284 -0.04197629123250502 -0.011618545482291107 0.027880627607812493 0.0648697271448986 -0.108728745863729 
-0.010347035891032965 0.06442460983701671 -0.03610358341764349 0.009493209427349346 -0.0262671003146737 -0.023858345681395676 -0.017813113870172335 0.010795160716986774 0.1131772938266529 -0.04130453652707764 
0.15968420638622305 0.0009788747949100469 0.03371179210959585 0.006771612656719071 -0.02043660259872178 -0.015077109484749947 0.023096565417862057 0.00783842771408257 0.015417366837066123 0.09043854070880597 
0.1163862600797155 0.03204583113178196 0.057570023056569185 -0.005439058991563599 -0.009914271356242246 0.005392600371473967 0.02693632637591275 0.005356627494132505 -0.0027795976706452286 0.09833814046843395 
-0.042332184819289284 0.07126248209685537 -0.05774473889628785 -0.014318246148484776 -0.03720439397052921 -0.09876761486956379 -0.01519768431838711 0.005213371402633818 0.18011609720511046 -0.0010280893160075216 
-0.20668210862775113 0.05775418315398207 -0.08276823021853921 0.011929857814952274 -0.03469440684467454 -0.07683502669173953 0.013550014548887917 0.05377194338696568 0.18096268828191836 -0.10382551173570681 
0.0290468032736389 0.040795879173377916 -0.01616063805732853 -0.027439916142753908 -0.08179689986602019 -0.1266769113524677 -0.01980619546728987 -0.03772920361001536 0.13644607900352473 0.05912255519430726 
-0.06786321954842207 0.034576592578126814 -0.05774462948814488 -0.0008974615497174051 -0.055102545824689673 -0.07370460985386372 -0.05712438031509373 -0.05702301611409767 0.06246720271028071 0.015451411325348222 
-0.07121081422361714 -0.0030436144905850336 -0.020955185162766194 -0.037065872270319614 -0.009171091818098831 -0.02110230926676253 -0.039166650515186766 -0.0336017799884054 -0.01163330093142689 -0.05212578528403142 
-0.03479542276372535 0.0016872926287980084 -0.021089840919687786 -0.011855458533097354 -0.008276774234697845 -0.045037896976954074 -0.04553946420338157 -0.04202425393342977 0.052800183206451384 0.00010399521391623451 
-0.2584322534380436 -0.060434931031661705 -0.011311176753367694 -0.05371480563158744 0.006133298897028808 0.06278044757968795 -0.02753778632132086 0.0191709949406408 -0.032260276812707565 -0.16481165548301985 
-0.277107475172374 -0.032750296548461504 -0.062345984411260005 -0.07910313451682946 -0.015022064178760685 -0.002882025792480304 -0.06937988299368958 -0.034581194657172125 0.008150181750551228 -0.12297676299860302 
-0.39131702100630306 -0.0564382505017617 -0.10573981909610558 -0.05332002270094499 -0.022401565623770717 0.04713142781616523 0.006710944105080566 -0.004822240858521802 0.007777200816733932 -0.24130649911665253 
-0.1626962383076091 -0.04202903432327047 -0.0395373279761685 -0.05293073170995358 -0.019536028531839757 0.003293428604201914 -0.06271781845786065 -0.03185062155096817 0.005035656729897198 -0.03322299921693728 
-0.18892678791946793 -0.007998773189433681 -0.011614753564137126 -0.0276896456885054 0.0063896894324747665 0.02882723594558265 0.02143617870755696 0.03683144292045244 0.0598440963462018 -0.08862375558706746 
-0.1939080883885112 0.011234472226284847 -0.04247144120543684 -0.02614548981798312 0.03945465424352095 0.04047798450340241 0.034908436104814804 0.058698637571780676 0.062294552778505985 -0.13903876211386723 
-0.05342395540062466 0.015611052618172333 -0.06548495671077062 0.0026750944759537662 -0.0023624046838859073 0.0040353213241134545 0.016115613172486998 0.04563821731752449 0.0317231010380807 -0.08820788377822807 
-0.021763751854051085 0.028706043605522865 0.0010426764412601111 0.01318581588167339 0.0036779216230247757 0.016184958126337346 0.006557477885777761 0.05046019403436369 0.07529757008271346 -0.05444359962137234 
-0.1067278918894571 0.028650149811302004 -0.005003086103533566 0.02836630123796516 0.014776919248168771 0.03380479283120508 0.055475733073152865 0.0691985095487105 0.06873539360262988 -0.08388548993367564 
0.08415481113913581 0.015082900336138452 0.037690436713304486 0.02520211960518785 0.016806995279237184 -0.02339469557006859 -0.0011771372305286153 0.0023776355782729013 0.042399234740853595 0.07508537140539262 
-0.17657927595879067 0.06198122975421023 -0.039276844758373945 -0.0073848503298552986 -0.04404690712267563 -0.07044212465077387 -0.018060661770638513 0.03444960192994459 0.14165287489686318 -0.05234394812020968 
-0.08153389714828156 0.02873003485812651 -0.01509676694862274 0.01644973498626359 -0.054637508698442125 -0.09694131768263274 -0.01620247930885274 0.006900997492969591 0.15831718512106535 0.011935766236397097 
0.10628732076551224 0.03263179625829067 0.007597262881524368 -0.019586643032298345 -0.05151443766028583 -0.10374540978189417 -0.039907258093599726 -0.016403469364908014 0.06451042490444939 0.11695152822855337 
-0.015912383619194774 0.012072447782915764 0.02588952016649716 -0.022907454738583653 -0.0028136937231400304 -0.04840469904582441 -0.024997664212276945 -0.04546705201032167 -0.008257644281907839 0.05086086798734171 
0.10132514365527764 -0.02204706978006319 0.010069673004203871 -0.013920720862140308 -0.04322831653491201 -0.05152869310539499 -0.045590296399294065 -0.06726558039663597 -0.04578349821689526 0.11497378302342154 
-0.005292560881885032 -0.07717445880260622 0.03156672780839081 -0.042957020226234474 0.03407308893488171 0.05365727394974277 -0.022370735649376715 -0.042970694430801745 -0.1407534668723645 0.043986541003767636 
-0.04471766077884339 -0.05970014141305498 0.04511606420199711 -0.019154952161112123 0.04202995128930359 0.06725308190673493 -0.0006895689518788464 -0.03266556779391028 -0.16016698587349598 -0.015505508745135899 
-0.20254088162823342 -0.08559122140089634 -0.03149367776591514 -0.07212099990433199 0.024629237762626516 0.1063020778356602 -0.010636918873649807 -0.015302520713233318 -0.17244065674231873 -0.11515536615505839 
-0.08151250983405003 -0.04582881878604141 -0.03356898476909898 -0.08309535654381327 -0.04604517886684015 -0.030497289396603407 -0.05213931563776545 -0.07322376734297545 -0.05522832922042267 -0.02489506174489154 
-0.11316538540236963 -0.07187689925596807 -0.03399354350153704 -0.06175558402825586 -0.015189853718852312 0.02627066577013219 -0.042180217931522435 -0.035311240296098265 -0.15392512975715145 -0.028323819997718505 
-0.0642440345891368 0.003417658245757524 0.006290352023544268 -0.00948726244368821 -0.027552811364874405 0.002419650973597322 -0.00568079141047266 0.030183457507651775 -0.027302818101527026 -0.04926741331040673 
0.04335453286993105 0.00785545918923056 -0.04211109695221444 -0.012579929537323693 -0.04490817287179074 -0.0608632605047581 -0.036504956791542295 0.01733487356463398 0.03845540649028273 -0.010759145088124606 
-0.06455735361088749 0.02050726654953525 -0.08200082724565355 -0.01248544349045886 -0.054801191936980576 -0.08684033192560817 -0.03812157800088987 0.02557398222657147 0.09244355452298456 -0.02745595601268056 
-0.12430740917463604 0.05414690890705632 -0.06813697490940139 -0.004689570006052366 -0.07110795343913114 -0.07236421610652569 -0.0024726917478566364 0.044236329051928314 0.16100644448902235 -0.06479064662981979 
0.040723102885051723 0.04677103456024571 -0.017689665075423293 0.008002010825329219 -0.015384845942300619 -0.019061364835897904 0.0027283695808240863 0.03631854766591975 0.07534954212494838 0.010927015247415097 
0.019052145413644105 0.017690570206674118 -0.009853402741033841 -0.0053372639923756765 0.0016267164086088259 -0.014967310780579779 -0.009068074311082511 0.03159532360722976 0.07429215178125709 0.05926830532696542 
0.07581968989284107 0.02498058424746893 -0.0022872448033570553 0.023217163088695907 -0.03650293709083003 -0.06946882042624351 0.008592403688295017 0.00818167576353015 0.09702212755161074 0.09081867728371597 
0.13029587286648361 -0.008192863737806259 0.0289339516073982 0.01384229031790498 -0.0007392694847999917 -0.055915966851548315 -0.013328000877367688 -0.0023071779770549427 0.00395785037392616 0.11864635033824786 
0.14228751340171406 0.036484779735208465 -0.006669468905398084 -0.033826276057621375 -0.1016562507060287 -0.11641165573495253 -0.03426906174509339 -0.060063032211004355 0.09578255696598512 0.13464608278239118 
0.05654182020990751 -0.041029710141372924 0.00408098793303833 -0.054708684319462075 -0.022452307939468216 -0.0449835755677455 -0.050255446705667735 -0.03953219589843135 -0.05977187535130532 0.0038345385282947363 
-0.2829705264893535 -0.06946132598005239 -0.04696660307233237 -0.046184606386830244 0.03491717000502439 0.0906872322457423 -0.00034854025855832367 0.02150425785711932 -0.10225429873610091 -0.15201964492767997 
-0.094489468858964 -0.05217183993498455 -0.027436898576480396 -0.055397319500767685 0.018493927778762045 0.04244888030118414 -0.017674856605111512 -0.03707758030977673 -0.05147336401301654 -0.05238814969954087 
-0.05036098008110378 -0.061071343873128674 -0.039898674204381805 -0.07968779533431272 -0.01080568612181338 0.0368011225452276 -0.03374304354809552 -0.04109651048275814 -0.08370922243361352 -0.04618957719326402 
-0.20620827251144125 -0.10191468116089544 -0.04792780092089721 -0.08624936033461421 0.04270763101114667 0.08062656785855281 -0.03994088393058363 0.015346426456358404 -0.18920091108770173 -0.15185457241799785 
-0.3068060180416524 -0.06843000108844664 -0.08753512000166597 -0.07305041444305561 -0.028734421294218895 0.05151028824919114 -0.03523997725584859 0.023982933875786868 -0.06570881467990008 -0.19948185487885298 
-0.18525650584317832 -0.04711722021287272 -0.04162329650780459 -0.04508267129852721 0.014925589084604016 0.044749889657012806 -0.017509023204514824 0.04708372708899246 -0.031171773271471363 -0.13013565478998385 
-0.07367184212901154 0.013584445406873733 -0.04383514514034565 -0.017003423681164323 -0.025306913650350843 -0.024591210378702332 0.025853397510080818 0.07349802745938758 0.0565953247825709 -0.08593514001862766 
-0.07461119044165812 -0.008845711406872212 -0.07364631938002081 -0.019376066367828834 -0.020115187112007132 -0.05933663756306058 0.01598052003678075 0.03104275063497915 0.06574781484391881 -0.07259737952122754 
-0.25762874850346235 0.02304978308249113 -0.06507946619184952 -0.021401928566478687 -0.04921069746431361 -0.07962213627093556 0.0002338573361764741 0.04815913303151388 0.140972858466203 -0.1582012257484204 
-0.10081498483873544 0.0690900379622736 -0.06482835321759754 -0.02411677996563105 -0.041350750797319424 -0.09028628375705632 -0.03332154080128832 0.033035275236960225 0.13840089208087136 -0.030571490845768642 
-0.1383574348444554 0.05761871242258431 -0.0041315332522034575 0.03031352699658292 0.019472816494868473 0.0020245015753390986 0.03145073415896107 0.04433067818064768 0.0755114586807339 -0.04206497314155104 
0.0009460556870106683 0.0062265731041062575 -0.0038065246931495746 0.026016822701431092 0.034177052371899184 0.05658745162101145 0.04289082119847197 0.05735410231531969 -0.04273355368813861 0.016709346690613355 
0.2773042404737592 -0.012273285440491222 0.06107580962601748 0.007028616402616471 -0.04436166502445718 -0.04602475094753605 -0.008392591734910037 -0.06129146834983302 -0.07080189440577166 0.16874370773171038 
0.2142950474644561 0.0159907549099298 0.0467766566660271 -0.014649159371605679 -0.04442748932635888 -0.062367613319126186 -0.01686678244049821 -0.03626403475710341 -0.02513095999531562 0.1187296444454499 
0.014712827038805951 -0.04131423876493086 0.02688674394628634 -0.02652068476598977 -0.000977666577127419 -0.00974721022413742 -0.029059728473020047 0.015497268988389339 -0.06983932751909946 0.02554418777955847 
-0.09664212958259656 -0.07405914360018397 0.03815250121652768 -0.0036757060110189596 0.049482264947082265 0.08902965881604621 0.004773294023148196 -0.028229341018104894 -0.12531150400515417 -0.03362651564241761 
-0.19450634646639797 -0.05925784207941541 0.033757944309644176 -0.02916297287794233 0.0810332608071276 0.20569543511715613 0.005166436284459791 0.0016294143740421766 -0.21036941692467698 -0.06950001146471108 
-0.0775909269711827 -0.0817739716339462 0.01725357315368715 -0.04341562705127618 0.01586821318777962 0.08917486684105777 -0.053439908892524916 -0.06521850052399564 -0.2470472248311238 -0.07474831706804003 
-0.28708508568180696 -0.12271268187932452 -0.0007248488629993987 -0.05080047342313541 0.14217875018514994 0.23531337302009522 0.030349031388053782 0.02012991679254581 -0.32697110132108326 -0.14710292296158073 
-0.08149270633321413 -0.11057807623602864 -0.03367688649053669 -0.03861613107270128 -0.009604624876049427 0.06009035765718851 -0.043710273037964494 0.006373112550938309 -0.1865136447407154 -0.06996207338094457 
-0.22286909613669886 -0.10260292763572347 -0.029040456678312093 -0.077459314956579 0.06511516970357925 0.1412804248987251 -0.016795225618521314 0.015399393680453432 -0.166877574871766 -0.16739059340829873 
-0.0366274618364211 -0.01725340251503221 -0.006605496100351364 0.01516240670374122 -0.007738511387756188 0.046771855200399656 0.015242975492727523 0.005202479831965276 -0.003813850739164581 0.03011593355826793 
0.013911939388084464 0.03190813583413417 0.02231844796548535 -0.011246293159105152 0.036758900711121346 0.04865908902704358 0.029142788506949752 0.03137032668624698 0.03279424483233962 0.0578660362655751 
-0.3615064348821077 0.03849017578882879 -0.06770268259595487 0.0030498047877722074 -0.011928173983327227 0.03889709742345859 0.0283589445750225 0.0926050424569657 0.08487668133247134 -0.19576901813074804 
-0.29686094242635797 0.020823697708970856 -0.08256619925907213 -0.0009100313754473255 -0.01850297810410788 -0.041174954389037684 0.016029469111374112 0.07497994387701573 0.08435847335475538 -0.18344127797409387 
-0.19890265742702357 0.025314318001731763 -0.053516309712516856 -0.015806608309286155 -0.04461789835638125 -0.0350343971311024 0.01729798068582772 0.05190002488091964 0.09547487318822107 -0.11571547598347098 
-0.03950009020714183 0.03377441397188772 -0.009185711457124894 0.042135537534351106 0.01168995152669245 0.016995181185065728 0.012601340821204416 0.010058273221878564 0.01489908328376775 0.015738864003512768 
0.06987604396635427 -0.038496464698826185 0.04646454979979524 0.01849180211567657 0.032486382669156516 0.008471238106533828 -0.004379581242758094 -0.022266861448464733 -0.05607900712491452 0.04162619179326341 
0.2034856265109725 -0.01396053216181522 0.08754022545994453 -0.019748183240050655 0.0073637093387401275 0.018999110524050348 -0.03324611671680507 -0.056224019679014164 -0.10078348994854208 0.15975997239134812 
0.2017771007742537 -0.005541249773246379 0.036224353177119806 0.0012859814590055218 -0.008576512815215206 -0.000395317339673496 -0.045074195156042746 -0.03157036564036109 -0.09124186132697445 0.1894338523316347 
0.048505833072231774 -0.03794236659169885 0.06598893767130948 0.0047659605014208585 0.042481939734746545 0.08350324702661183 -0.019343114597319577 -0.026364217806625116 -0.14541221687720698 0.11603761538209838 
0.07494630153135048 -0.06620728294652953 0.0726798352020085 -0.010378742090559483 0.07849636070508817 0.14666638719826958 0.028188177301494276 -0.013204276820651525 -0.1685765827656603 0.047362971613141465 
0.10880478570287616 -0.0002805822003208915 0.07394281258909413 -0.00016088740383178243 0.03702431250324717 0.06296033352327919 -0.035540516878849106 -0.04815881330333589 -0.08756282544937086 0.1261721777359206 
-0.05456134752683756 -0.07901233428935449 0.034098859501241086 -0.005569236437471539 0.13158940513064676 0.21332594844504382 0.006942603238838777 -0.0006063995819823483 -0.20236635544623383 -0.09648603313195886 
-0.1877381867838633 -0.10910602144913548 0.006282813743026972 -0.023747069200660113 0.13609407698890286 0.24930136268144668 0.06396035743241686 0.030474711610299 -0.24863496816235392 -0.1582995898394505 
-0.037143944788227336 -0.08343150776800058 -0.03309140157073329 -0.04545936423515587 0.03796286045070642 0.07015685112551263 -0.010991078648778295 -0.020006799352055578 -0.16366298318298206 -0.07670038792714093 
-0.07005096547573018 -0.05771077766270981 -0.019193428340853292 -0.03918788133242898 0.009484253815814048 0.07225199711123367 -0.02755032211952266 -0.00854975906776735 -0.12752224703800863 -0.058839538605013675 
0.20955353733827076 0.015878100344775613 0.04229162992552533 0.010050255432943718 0.009303674115551096 -0.01428677358727671 -0.028600236929891245 -0.03111551168044391 -0.005977662294940841 0.1103299918428565 
-0.08262572999611693 0.026982668966714855 0.004133845845794525 0.019047618598546 0.002381862585902818 0.045685854345422994 0.04568469724599739 0.045931593729979986 0.03925137326916671 -0.006408616665703103 
-0.1603703609232145 0.006235096091270765 -0.015175301903489128 -0.006614393309015856 0.041433930170267225 0.047290015371143676 0.024200651471547267 0.040849389514296425 0.03201985950833656 -0.034270824880245104 
-0.22863863862267114 0.01323189595868935 -0.03232900393552648 -0.013312260074594061 -0.008200608133446141 -0.003188346752092681 0.02250142498087077 0.052747922976986494 0.05721257009840671 -0.07684670705458901 
-0.15984899885603793 0.021680281621068286 -0.05023655841149475 0.0034130380782872016 -0.006004028215398796 -0.05934800754176713 -0.009222753904435867 0.02577917533657529 0.06154467381517633 -0.08600479475882454 
-0.09373386384913031 0.04385295034667868 -0.026310901574173602 0.01049422363173059 -0.006902029960036703 0.011473578420166788 0.023102050954512433 0.04764661183801013 0.009433665379756088 -0.04142886977536589 
0.17659207829468282 -0.014152396453940006 0.08275234760075034 -0.015789090706034205 -0.0020371576700579327 0.017369449417652814 -0.011910913285263338 -0.028605123910298264 -0.10967466984605309 0.17550988002875473 
0.2900799371124805 -0.0345800811339183 0.05827946575781455 -0.0006774772767682742 -0.008202706609547226 -0.0310574713699255 -0.03543798279695596 -0.04933029237369217 -0.11242874573200137 0.24867625277103844 
0.25354856499461864 -0.02942537917942341 0.07634324591774805 0.002292504434100135 -0.02474462643554306 -0.013844854722055586 -0.050920333221450405 -0.0995001306025769 -0.05466546929029159 0.21489120304989115 
0.2274559527068289 -0.028235409996871918 0.049462402651333795 0.006137389078285929 0.008064999867813304 0.012395828960265337 -0.04706276916334567 -0.05780120763770724 -0.06245879960056783 0.1535657292656719 
0.11342922112766632 0.021443789915900888 0.061612275678362305 0.03618130215818662 0.0730005481280894 0.06504823567892397 0.007440259436319516 0.03225852781956645 -0.015340133662333756 0.04200361528661852 
-0.07058718945875729 -0.06542118124787454 0.06182549802671645 0.00028168475584501996 0.12448987408041542 0.1939698980013271 0.0754621833750762 0.06088936447563341 -0.15308418512613586 -0.04650069900032934 
-0.12406249225234556 -0.08468423484921181 0.017862851755068535 -0.003481951753170001 0.14994022827307443 0.24018863804493784 0.02679848221097765 0.04763274515261722 -0.21985959379565584 -0.12527094605497707 
-0.33467719061907863 -0.12185890859732948 -0.0026118196994473564 -0.010245862608673797 0.1545726747316148 0.2703566183900696 0.08670267865098076 0.047239419178483094 -0.20169826201269164 -0.2820505755940024 
-0.06910878406683717 -0.03556931918978443 -0.012722770377912132 -0.04068875122158649 0.03358541972526416 0.06306960997515802 -0.004673484706460746 -0.008383349548267615 -0.029750938480064538 -0.09819997254089444 
-0.10349154362430887 -0.05420034898049051 -0.03151869942407699 -0.04548392244677191 -0.0014407584876817547 0.07603532362598041 -0.03177539315957909 -0.025242559376121864 -0.09324597634707757 -0.10827108616723598 
0.04452029599562319 -0.017077918521130782 -0.022474690126253936 -0.013413119885344656 0.033841409919054995 0.014667416248144058 -0.007119321337168446 -0.016002169790718692 -0.004319605236661989 0.01103607761561222 
-0.047486985621025934 -0.006803912492280505 -0.029270398263432678 -0.018344973737480157 -0.06115263413784846 -0.07440696233414451 -0.0052218116176838015 0.03484365042600389 0.06206013903453881 -0.011255252471344627 
-0.1654374598391627 -0.004899563353835214 -0.01698385636859013 0.0077472178537735786 0.025132170473407583 0.0767514005700526 0.0542813523231952 0.09151726610071131 -0.024782510795781337 -0.077214221629214 
-0.20600863862267116 0.03750189595868936 -0.033479003935526476 0.011787739925405936 -0.028870608133446128 -0.00897834675209267 -0.0061885750191292355 0.05616792297698649 0.02056257009840671 -0.047416707054589 
-0.01027034231061556 0.039339813235729 -0.0019115747848051125 -0.01220877572772215 -0.03560735933073393 -0.04901830749250403 -0.01704865389332901 0.013487926193854515 0.013121292651464327 0.08362136103482744 
-0.04720015917129072 0.020249447089753368 -0.02661844421796783 0.028097665084666504 -0.026754000414535736 -0.05364362456958536 -0.02068578496824521 0.011433050458245863 0.0630634071552798 -0.0005546516608611295 
0.3956193890340371 -0.006607290361637737 0.10197106679507481 0.024788711441083737 -0.046252546434542054 -0.047650578840022426 -0.020643880593629555 -0.07697842053557583 -0.08994560148690098 0.319327388201485 
0.43392483554313677 -0.016241557051382423 0.09731987575532551 -0.009670201764762304 -0.08359108506392425 -0.13123046658798423 -0.07266407188305854 -0.12652486321056533 -0.10132863854993113 0.32590541521886013 
0.3568206137660687 -0.03641124258298094 0.05905538794718421 -0.0063619424350846625 -0.04244906764858008 -0.06841111251348841 -0.06363176236622657 -0.10205571246689696 -0.13034551828459395 0.25512886007067836 
0.2675939058453192 -0.02103457177538494 0.07519062375452606 0.01420432524882998 -0.02646167362514809 -0.017813215048611556 -0.04927013962892179 -0.07109514179771956 -0.09379463841206082 0.22291588681937874 
0.0026070784492159627 -0.02375928539944554 0.06853186020513363 -0.007006264800925921 0.06788235101291933 0.1232724463298606 0.02872294083680526 0.006395802334313203 -0.08295445402422115 -0.024579147328994723 
-0.045902002696808795 -0.0082697182117159 0.06860115179305606 0.007251654907266448 0.11830065488871044 0.1551085655767808 0.06665744243595835 0.017627231827700478 -0.10678102300130185 -0.03456431336868156 
-0.3092174707241042 -0.1291296629578861 0.024599586628840802 -0.02515459554731532 0.18049810590806328 0.27531060005721425 0.05343524477372932 0.09171556499771888 -0.2560458713095031 -0.24473974319112912 
-0.09788265881768494 -0.04840255253524523 -0.03218431822073369 -0.02382363252303768 0.05060254912212701 0.07191617232647983 0.02122041921880526 0.040346238110061716 -0.05568219214710422 -0.1334122710076765 
-0.05359679967113442 -0.0382938990808439 -0.02860713518658544 -0.014024212401221935 -0.011486709702993795 0.0007938850961998916 -0.025620909551108458 -0.022786251145974375 -0.05009816597478256 -0.06621054504050475 
-0.07655032801226726 -0.015838757301777633 0.008391366661890241 -0.011238795789026458 -0.001526226528610267 0.01482764204143438 -0.00773606289232299 -0.0030726677654048778 0.012454172002170413 -0.07944966000160092 
0.058650363198686065 0.03822391358841726 0.012920647709724049 -0.013198007197934486 -0.026770702097760956 -0.02417360703032862 -0.010680238650015652 -0.01854130412062946 0.013883675544474144 0.009872988028569236 
0.10193320719558462 -0.016513965423749714 -0.011268372958155061 0.020599494859597157 -0.04389795621667265 -0.06091694055346808 -0.012919676962142948 -0.014245778865566754 0.004163995992385719 0.06156723958961552 
-0.10681752455827931 0.02665483137149756 -0.024766834813299367 0.012194300218743208 0.010371620724322208 0.05355187517234429 0.03718095843869716 0.043863071830376237 -0.01887851565218776 -0.0637907718598907 
-0.1514757045173033 0.03398346501794329 0.010507640507177306 0.006834267860181729 0.05590853381155112 0.024876479217275333 0.027235707679299472 0.042985764869850646 -0.029339689221541138 -0.052445188138951326 
-0.05808059146409504 -0.003823033926288107 0.023496798997495613 0.0017841375180198966 -0.029152636958177942 -0.038936988230935436 0.015795084222522345 -0.016444103338375635 -0.030826366038516972 0.011916909214920817 
-0.03075034231061558 0.04395981323572902 -0.013561574784805113 0.011831224272277853 -0.022157359330733935 -0.031268307492504026 -0.0015286538933290087 -0.007812073806145484 0.02744129265146432 0.09450136103482742 
0.2781073145090579 0.0014404814790610013 0.11187154971288302 0.03648311464224514 0.019631144579857197 -0.003152624139563362 0.002753527416650912 -0.073007014338534 -0.07358092894916465 0.23451353108562542 
0.26299143407525793 -0.027082634088187684 0.07648632162749408 -0.015759890883926365 -0.0012800448321311922 -0.04262604276581161 -0.05603565008291882 -0.10098311901288132 -0.15348210259674946 0.19104615007254597 
0.21963760742893454 -0.047088941675607406 0.09354270273698728 -0.0007374757142983063 0.020389959089005157 0.04542846367027445 -0.018104266728744576 -0.03212038661789207 -0.17077453187266972 0.17345292648920219 
0.29542265848287547 -0.03766004306017787 0.09537914888224464 0.03154832864530797 0.03899383157466403 0.04610423135337177 0.004578875713100223 -0.05740241511104668 -0.12833554714659257 0.18073395890467067 
0.05809302027852408 -0.0633122994080637 0.08043119565384657 0.012458401619726795 0.07745360481595512 0.13215411232487384 0.024575224129231348 -0.027908442923567436 -0.17551788778748956 -0.016931707720370334 
-0.13755601531669212 -0.07095408603746413 0.03405528530211445 -0.0046070520131053375 0.09899500214561666 0.14771162757304065 0.0493918400729065 0.01857896278045187 -0.15432566029300882 -0.11807814532737257 
-0.10212170591854634 -0.06739379553277647 -0.007625713746357977 -0.0026546346185601123 0.08116143966269077 0.15449109191786894 0.031646448938836766 0.047889563075096814 -0.07821015641258601 -0.13917987560573108 
0.05936730123773521 -0.023695751763519866 -0.021377476929208817 -0.0029610012059165074 -0.006989642141840622 0.010020238598046181 -0.013707262607121963 -0.028652252875957306 -0.03815036170222401 -0.016153589911523818 
-0.02316385309803185 -0.0422563353627026 -0.023641102300937078 -0.0053009077421161495 0.008304282799423421 0.06469723694528794 0.00553290759917602 0.01448098375580413 -0.057394777862876764 -0.054270365926157804 
-0.16473032967410683 -0.005079461247092915 -0.029192131814670494 -0.014577369417852926 0.025080218468175777 0.06990595490194641 0.0040787583989856935 0.03511739956725991 0.06454118019867897 -0.1091709052052652 
-0.0821976482491248 -0.0033615446032548898 -0.019993929492211435 0.015354003583417333 0.00894125709073974 0.009890125470946119 0.010154538397220823 0.02902488139643322 -0.029585887045817032 -0.044442925030478156 
0.061384780731075186 -0.03710959946779393 0.0025780593207506038 0.015656247238794833 -0.015242473284184262 0.03558363776993761 -0.004178596503229589 0.0008696629571637625 -0.08453372448213212 0.02485990463557994 
-0.04591930694429722 -0.009989407238497217 -0.0015467172018481488 0.020228107355792602 0.029038975748932737 0.05551410113600761 0.03790746180415839 0.04863568396847432 -0.07573273006599165 -0.04272309529464008 
-0.011137216029989322 -0.004143688298355684 0.029249405990508376 0.0003715319764622646 0.04204941301976706 0.05099585165113484 0.04371927473320558 0.03202060580072759 -0.029630424242092012 0.035004416322142295 
-0.07451059146409504 0.002886966073711892 0.021296798997495613 0.020834137518019893 0.0005073630418220428 -0.016646988230935432 -0.018954915777477658 -0.0018141033383756357 -0.025806366038516965 0.018386909214920828 
0.010927874650885282 0.008193165271082891 -0.00511174151760649 -0.00321137310253366 -0.02619966474337461 -0.04559192169487812 0.013321310897120657 -0.028466142873333114 0.05555524732652952 0.09833674605096758 
0.09754689901748811 -0.02311335164237847 0.03623032855783316 -0.0139676422066604 -0.038278455662883716 -0.042235093734161136 -0.00033661737765130844 -0.032217853426262176 -0.022438011246164583 0.12894483993396713 
0.03476734682861158 -0.04556623333874465 0.05555635944013462 -0.004349919189707388 -0.00914327333698467 0.03308257856268873 0.004061674970245493 -0.04360206792086283 -0.08200062820271503 0.08106987858469725 
0.07686396762038089 -0.044358244802940226 0.022500626239780455 -0.006523065306495691 0.012805616396848934 0.024649466718617605 0.0017686491108650521 -0.06097865766010148 -0.09518486882100098 0.082552978985691 
0.07722903804995157 -0.03562907790052238 -0.00967075934482679 -0.008565483853567066 -0.005929481973276699 0.03202450615743258 0.007909057766718778 -0.00481212255588068 -0.08869790250194154 0.06412671601025585 
0.13460575630803687 -0.09324657662890573 0.03098409548931024 -0.04723635301912949 0.000772276329012285 0.04928062139451188 -0.015395473289783133 -0.07534666435214046 -0.18576804998879204 0.05083916921540375 
-0.01800854100818076 -0.05286296118221316 -0.023018443636603474 -0.04719864556825048 0.03972803402705268 0.06031224338532108 0.0008450098055001309 -0.021537126572129806 -0.11838186436719858 -0.0379876078458471 
-0.23390255435760735 -0.038564567405183534 -0.028298529675837892 -0.021862375926368163 0.04088532943741527 0.10314822688100364 0.03802290392659379 0.02215927835621555 0.011325188870677912 -0.153546875097534 
0.06049872607683702 -0.016418753835314583 -0.00848626424936634 -0.004616291674543775 -0.015317621906999195 -0.03811969725982923 -0.036654098509752354 -0.03224464090311663 0.036861942782698165 0.041664083554500624 
0.08500234689944433 -0.03269039442766576 0.012080150777911636 -0.011708490278552686 0.019951241541627866 -0.00280344609830447 -0.0229983447779191 -0.010834226028656125 0.015560548079665754 0.05697417733803584 
-0.20016872228395988 0.007712240417623513 -0.05341684007360907 0.017271281771330128 0.058618724472422695 0.08905994676517842 0.04523105758185259 0.07368843340536602 -0.005516834313207895 -0.14688034788195342 
-0.14201201368810396 0.00614300824250978 -0.011528189642655767 -0.005566358144034421 0.025335793793409497 0.07376884500078115 0.02169331566480455 0.04377733994392498 -0.025596902446180642 -0.09007104734944543 
-0.07360376607819152 -0.03296407964105587 -0.02286316981429382 -0.016642029350525358 0.028388338100452194 0.08344945047809871 0.03386217590329182 0.03289525090573602 -0.10480871059474302 -0.0735807354629257 
-0.018485651993830825 -0.0022791607850075907 0.013504526494156486 0.02524732593148485 0.028308286139027805 0.07505019168122287 0.0015330500820405647 0.013912246358453846 -0.10905542910562425 0.037954748709396004 
-0.12964030985447617 -0.028140623391834263 0.006685304849637956 0.005004669701085136 0.08694387833592607 0.12930376215536954 0.04016431312208805 0.03982517636242909 -0.0884430519990166 -0.08209185326511378 
-0.21578472190776393 -0.04979305475448842 -0.012487863670855009 -0.030420887783765962 0.048877420166416746 0.08806392510103714 0.03830049842888761 0.05553501142859084 -0.11389731079191766 -0.07696098541759985 
-0.1592977061166132 -0.01260160192613856 0.021363831451140156 -0.008042447491152706 0.019169071685924445 0.06429469824949288 0.01601152449142266 0.03952532432400628 -0.015093591677861846 -0.025658081760104805 
-0.016098297439652333 0.03205772805485068 -0.04842973189097244 0.0023779070293951567 0.004440170310263606 -0.034897112267480476 0.021844988768227883 -0.010917910537453272 0.08258456914761494 0.0019942759521073827 
-0.03911586523282616 0.01304026646742504 -0.007278065817344268 -0.01173983113328727 -0.009296776792095326 -0.015075164849588756 0.02592585627147699 -0.02052502662976069 0.029134724696346488 -0.043921257896772835 
0.12409613766334496 0.02404039586072973 0.04313957580288121 0.006551214860524616 0.0020288391138593084 -0.04295201642221445 -0.045480875301755964 -0.049608055915829265 -0.052295750936149785 0.0990723872475987 
0.14975413053102435 -0.031548017439625035 -0.03582762160937145 -0.051461365249676976 -0.0712321996753614 -0.09489334532498123 -0.04982268946577291 -0.07809310760430849 -0.016864131562168316 0.12923254845828752 
0.1608160346073558 -0.04638771541724992 0.0033291901292774205 -0.05940283712561585 -0.0730820682393902 -0.11107975350623997 -0.10949670357986736 -0.12421996670840635 -0.11561732165141032 0.16585743578602066 
0.3071621112369037 -0.07678568556457352 0.01509079973770349 -0.05319369281577035 -0.08376391916830553 -0.10062403796489902 -0.13681128591998729 -0.19264439122558327 -0.18224745031174877 0.25377140215127086 
0.016056485792649226 -0.0631209738802664 -0.01908847852775632 -0.046523535710522534 -0.05296453444380888 -0.054364196612914605 -0.06807025894326044 -0.1269991138309734 -0.08828834619878236 0.05280622797104436 
0.10376434920384603 -0.04959920570732787 0.006090098418498377 -0.08288068475840892 -0.05532513897824102 -0.04445182231021896 -0.08816209982507546 -0.13587387858023434 -0.10334530774975859 0.11414573412004278 
-0.24237038494638963 -0.020742008906986468 -0.08987468972489328 -0.0808552921459899 -0.048600874430233316 -0.08091490364662567 -0.039732497087387894 -0.043936036628980754 0.02332047824553675 -0.09381906511232634 
-0.039390322884539294 -0.03609368497328632 -0.01616970775462314 -0.009851583692338397 -0.005425472262326692 0.011086588844293001 0.003991417248760395 -0.01996281663121021 -0.11275505844856229 0.018298537708064545 
-0.09304059175399168 -0.051002717682599175 -0.018280140771173764 -0.013366512081266333 0.0016229636275339185 0.05390899028477333 0.011965646314768222 0.010376476267315823 -0.1545953160105324 -0.018452817747487638 
-0.07476924272118918 -0.04383663995731035 -0.004811574545514228 -0.012947529500223626 0.025661375827552162 0.07038305906010252 0.004550171926479123 0.0340083400775932 -0.14050786952646 -0.03344935171886135 
-0.039596490719090535 -0.05212007578011337 0.012035409337740303 -0.012102460458725726 0.055829096129218984 0.05839700604391632 0.012058686435119328 0.028439396536987866 -0.1476305915794998 -0.009529928069964059 
-0.11450762403907694 -0.018421505376869995 -0.024956220879075272 -0.019831432597694317 0.011327875417259707 0.033620816451333455 0.022896262415924826 -0.007299568435841052 -0.04298349226780795 0.0217368856178645 
-0.13860564076173912 -0.026342621942218078 -0.006257155258777453 0.005631192508041668 0.0052791162906256385 0.03298780585411695 0.015045996829734521 0.05190358193520355 -0.05697074181483696 -0.05193581937791303 
-0.0809548614456059 -0.00021751399467708567 0.011546306374311312 0.012927328029966465 -0.023150671257678567 -0.019821892993173218 -0.020189775781608455 -0.013911275769925367 0.01775137738908144 0.010243736007244666 
-0.05090315791785671 0.035303048387621494 0.024307704818767848 0.043472960373747954 0.0568567481942787 0.04573788045793592 0.04180675833674731 0.061633903115682356 0.03215148356412263 -0.028971346450850727 
0.04355607528920423 0.026273044558256943 -0.004724306934231565 0.04022174216160683 -0.035162411757464714 -0.03697841777679554 0.017463354396599563 0.006965006863619035 0.08389660537644691 0.058935182603975025 
0.06317919942386412 0.05006412661775253 0.006305788674286952 0.0005496285933852196 0.00790540835671371 0.00705871779147248 0.026320216225060998 -0.016649418457953223 0.06272101828438187 0.028112311275008153 
-0.021317183851260742 0.04394723540680269 0.030256206763972105 0.013465664710160665 0.009018607255857444 0.006801175180296295 -0.003591167249852251 0.0021829453875102343 0.08319216257462818 0.006417185925670053 
0.22300063024220254 -0.015051221862059407 0.019132001062116263 -0.023965067212166475 -0.010876544524973476 -0.06725025750964997 -0.031820996527504294 -0.0580311147687568 -0.04074919190490829 0.10987534880740266 
0.3644420378544077 -0.02295318554779175 0.023338645809683915 -0.021105693514326406 -0.1092549349992641 -0.20211049356914262 -0.122805108784966 -0.14149836805069269 0.02673727186975134 0.20570905791983124 
0.12874267552493768 0.03184706568541311 0.0018830202743503992 -0.012902992034854585 -0.0893542457598257 -0.19050689018855999 -0.11332115823939068 -0.08716618937955119 0.06910700648047259 0.15337907548147728 
-0.24076235990307754 -0.005855512295365249 -0.046440259254701154 -0.046937443477076464 -0.030679682702222093 0.00109782118767508 -0.021807998719071894 0.010931262916049655 0.06745195295384465 -0.09549307910649096 
-0.1434423286178671 -0.022476026388208552 -0.03716732464802144 -0.025780551066993323 -0.03642899208333262 -0.03934977862466416 -0.04917686348616124 -0.008217702040773957 -0.01902758050932884 -0.012464094201267487 
0.10302857262879636 0.025247073377078585 0.001772106076882854 -0.026823038193242707 -0.0777371827267121 -0.132162291088603 -0.062100637678231256 -0.08107443043204188 0.005791169469203641 0.14482035857131081 
0.006410788423886383 -0.02038148377345389 0.049960046368552155 -0.02566174465368643 0.01707413915762047 0.03639977567962639 0.012957050754083156 -0.002591409349130774 -0.09227844284661323 0.017738586773930344 
0.04627569222504223 0.004766918795844814 0.04552824832843144 -0.015750151163797597 0.014549704707103008 0.0012255721504019178 0.005895731289252002 -0.008699629507681918 -0.07572708834247774 0.052887402585036145 
-0.014522369966254804 -0.020492828333003654 0.012352591426783572 -0.002113064856861692 0.018929766524193568 0.0031194935545058936 0.020646416995428518 -0.022182687679436937 0.00018601682444700784 0.05559813183049979 
-0.06942368273348444 0.021558529251288754 0.005890668364169027 -0.010834710054984136 -0.021774137492960012 -0.015311912301711186 -0.010080233945342874 0.03950449129914872 0.04626887891133691 -0.00982483492994204 
-0.09401589604110897 -0.020436544779984554 -0.009872694524674248 -0.001575460497338872 -0.019599613000121384 0.02280128347936128 -0.0008642461391865598 0.024880513238592347 0.04060996136483998 -0.06757793657913233 
0.04826 0.03508 0.02945 0.04973 0.00513 0.01014 0.00927 0.02365 0.0046 0.04002 
