0.17488508383409243 0.3118154671309977 -0.05545330721059855 0.22795942212461545 0.19102649422538923 0.20892209032546633 0.17287505673885484 0.25503136482295496 -0.01806857657741342 -0.0225097043963093 
0.01662 0.04952 0.00683 0.03298 0.00202 0.02369 0.02889 0.04396 0.00815 0.01437 
0.03536 0.02547 0.03026 0.00799 0.01385 0.01502 0.01182 0.01862 0.00765 0.04895 
0.022118092843441964 0.0421494546542836 -0.008805785639602064 0.020705101429814833 -0.009156374677646776 0.022004449909559562 -0.018474966867309844 0.013704823606044966 0.05985674180128563 0.02196607787136679 
0.004670047278424593 -0.028513528613684596 0.012212799713885674 0.013774052081416223 -0.008778047415056204 -0.024522153660279808 0.02123344663315519 0.021323739307179172 0.027660669505508034 -0.01890902687416061 
0.04805761484841014 0.01171787706415095 -0.06839055839470563 -0.0019574277170330435 0.04263534643060167 -0.011919325922338613 0.03103806457294445 0.045900833281653924 -0.03346971653469905 -0.09314842417211625 
0.013220328515952236 -0.02822489334275875 -0.005170945371174164 -0.002177302000342024 -0.00881750762962765 -0.006222506475782284 0.025008530971590545 -0.01578975611757617 -0.04499107166166357 -0.05587593477300654 
0.02992334083765113 0.04708875348526852 -0.07903990825758485 0.047403859407882 0.013667388248136268 0.10232792369020374 0.07649948227666577 0.0207288749555588 -0.08868075378091765 -0.15911994029159088 
0.07147756825205126 0.06212876185512531 -0.11895614706779216 0.026142247377601756 0.0961989385803598 0.0524541604586051 0.18585050478434634 0.043235864344383035 -0.16304054810104307 -0.1613251031936987 
0.04798152023948554 0.05394658018303147 -0.11383340873858483 0.11039758290878943 0.06821080968276985 0.13632648167482025 0.12138667409560477 0.03700614115444088 -0.09555506568285733 -0.1385614967513807 
0.011632703737512939 -0.01835506092332475 -0.11871386766799061 0.002114086035192142 0.0516199916040754 0.02779340514457379 0.13591500349432434 -0.018383561557999948 -0.15046387937375788 -0.17569551143045 
0.10760997023571978 0.19597784885440994 -0.26997822248106 0.04069446431171095 0.17666472307621228 0.07723836302212668 0.20986293764308384 0.13596532117875387 -0.30915906582894165 -0.3790815459801373 
0.10441081605642913 0.12071129201720168 -0.17264040295765218 -0.09357125593045981 0.12382272579768491 -0.12333104463610116 0.250701995680445 0.07425918174519357 -0.33285568837494034 -0.33264041130359157 
0.11053230948818937 0.1078793361335669 -0.15013442888856557 -0.14701057238342904 0.0962243862305894 -0.18080533252209435 0.20552244882576737 0.05570439531669233 -0.3100895029971352 -0.2603376277345257 
0.030183523684150934 0.09060221987799767 0.007146051750443509 -0.05755426282786548 0.03459692926656929 -0.05993998763941623 0.10004956965783829 0.025540560848561544 -0.14010414967890017 -0.06856693819014785 
0.0184380745291415 0.021222325275954336 0.0950084607277474 -0.11553145123256686 -0.0055760648193348035 -0.1709955102590699 0.024269862753725252 0.012285260569684996 -0.031403338562227205 0.03724540342021419 
-0.03820344051256094 0.03274518754605232 0.07277634645230703 0.05908594535797679 -0.040729364628422596 0.048362298568892126 -0.12430441963248032 -0.05522860174878849 0.07815557568544099 0.08073070342137273 
0.016489695641370303 0.029671762247991503 0.006928147016968644 0.02378924098590859 0.039541150038694 0.05974267509188007 0.04454208132251144 0.05795205524932406 0.01607021502848812 0.023383748481168823 
0.05381954313979834 0.04601050223805188 -0.03658177744674601 -0.009514204891059412 0.033077784235082584 0.008644026913943413 0.04137747655208491 0.03625406222603041 -0.037820747093373 -0.05028094324007841 
0.08545172262672543 0.04325980536287355 -0.06001331472766367 0.02638049113872669 0.06945185714694635 0.04068748236388785 0.0959362354684673 0.085376926574319 -0.06732604737347364 -0.10486422804499732 
0.03983850940093107 -0.06491437212390042 -0.0432392260986994 -0.10211736666785927 0.019431471118252684 -0.09233515557354843 0.10294220033577066 -0.009195490622487427 -0.08182091499965996 -0.11050773792161867 
0.02733169438132433 4.875831574934278e-05 -0.07871893529353348 -0.03180978413063071 0.05223213152411185 -0.026264134338194883 0.10136702893177484 0.0019718469079376575 -0.12458509341670611 -0.13902892811713452 
0.10727215807157064 -0.14368596302298886 0.03489094860690385 -0.2284454645252485 0.06704491370416575 -0.26580843080607863 0.20263248646374832 -0.010589090011255606 -0.10830161290566698 -0.09763447792005212 
0.09929411407139141 0.0794239982166298 0.012833085404258215 -0.028709614258827357 0.06860339172725947 0.011750673177399591 0.15888561654586308 0.0368043310985274 -0.09736906817073121 -0.10827011249578294 
0.12700545725890583 0.13043594547962944 -0.08713230037365721 0.07004327672392201 0.09728018621260594 0.11775760094994815 0.19939628665072182 0.09034513629387118 -0.1489877739173986 -0.17891515639816005 
0.04128538101527763 0.11304158814570309 -0.05401975671375695 0.07078733927451349 0.0783535853092528 0.12057020191959229 0.10858572342709921 0.06796776552135071 -0.04686176737237345 -0.06246192587624793 
0.006802062846486495 0.056882842604025236 -0.06362873469993749 -0.029514800520753504 0.007481286066728422 -0.02571851999764584 -0.012476615601104267 0.02878243253198011 -0.08992284939945762 -0.10156034889243049 
-0.030949088458065904 -0.029569090229842006 -0.014148218589564554 -0.012282507348638352 -0.010212886005611488 -0.013941590965520875 -0.052408513981656586 -0.00025768013197751717 0.010752734119385876 0.04622061704552696 
-0.018191995757689886 -0.0005743455368112274 -0.055986185574281665 -0.07457121795184109 0.00886582394505792 -0.12282604192512563 -0.0033822854520035722 -0.02275958873559745 -0.0916423052910327 -0.11214326185957893 
-0.07094816104788773 -0.08901819377535442 -0.0034689227572814903 -0.04151618552135963 -0.08821319801031727 -0.040887662242222275 -0.09105367618583574 -0.059142573578625644 0.0524988669826495 0.0392549420310529 
-0.0062428162640763025 -0.2513610018590739 0.19339475970005027 -0.2634982688508166 -0.09379883459662156 -0.3116885593359418 0.047578494970471466 -0.11856507578181406 0.08008887900748299 0.1982630564341157 
-0.022092465980495024 0.08287318796584237 0.012399791280080893 -0.012343402425337519 0.033566524099457484 0.004105562619111793 0.035515210065460455 0.012476164957909104 -0.0733935656689309 -0.03459389837023484 
0.06711760822991349 0.18259597503637146 -0.04280597559237869 0.01082261264112588 0.1116874531572531 -0.03510501316694997 0.10000791639735507 0.1070369555934415 -0.13424366237574312 -0.1530536478077113 
0.04479252163781663 0.005076075378342353 0.015379705296704209 -0.021624031701617266 0.07227899036239645 -0.04857825413618239 0.059180690410340735 0.039585966327391704 -0.022442232695161487 -0.01004407470629798 
0.07154045775195436 0.007401617792303866 -0.10086893913400301 -0.06032255744685082 0.06517858001941203 -0.08726592781378664 0.1285064761898207 0.08065338089612434 -0.07921394343569542 -0.13625169666449496 
0.0879136412120472 0.06372148318948305 -0.10870603399958569 0.05457761754374249 0.11530844195414028 0.035709663386611475 0.20178763059390276 0.10161639882782898 -0.13890490759094676 -0.1917756652682966 
0.01876569343027871 -0.0012133214733955622 0.0024047838529906995 -0.032665887901745044 0.011214285394254491 -0.03808635827286791 0.1397700333741841 -0.012932167408500655 -0.1108295353560953 -0.10247881092603554 
0.09439347411550833 -0.05170307476303865 0.058851298620431355 -0.1510224833997258 0.053357099568931754 -0.21871582447410504 0.2235017299590903 0.000295425280538531 -0.12398229365705672 -0.08724320893648203 
-0.0026360417415560566 0.001441445984583973 0.012632331290393362 -0.004235886683516363 -0.016167090430688147 -0.033214811501763836 0.014353815578391493 -0.0331862917812995 -0.03481033075960519 -0.007712360493562739 
0.004299242859571501 -0.08624983309019665 0.06395250361898956 -0.029105173399276256 -0.024349544256727088 0.006497471883376214 -0.036928213421040745 -0.023700150570659072 0.0437526839286102 0.06562612591401427 
0.025123349311327776 0.08334858891522087 -0.045252376637364713 0.11046709383191389 0.006021847325348725 0.13808014951826483 -0.001386647099976127 0.046906801831122794 0.01576619135280749 0.03153210118627477 
0.00821094791390887 0.17834574746797335 -0.098476060184585 0.16501726066818234 0.05423953030241462 0.15474480267372503 0.007466893467304336 0.07181897968073697 -0.06701044161480882 -0.13108069588764976 
-0.08804207949269552 -0.054468240457639226 0.07051679009446052 -0.017542736869678627 -0.08665378309808373 -0.0642471379739272 -0.10319039760215418 -0.06336884195304553 0.12275320356088985 0.14121043846727782 
-0.0635125100566285 -0.1787534270729198 0.08885865029268118 -0.09385202119323711 -0.11023083512063556 -0.09710109880838572 -0.06120978575491682 -0.12324280155935687 0.15120796940414272 0.24518093482146935 
-0.11558702013525353 -0.27085486955159366 0.13020719485243926 -0.1743501834037441 -0.1096933827825552 -0.19991999883550698 -0.07596432901901959 -0.14925228165584895 0.17065053924911996 0.21750227119558505 
-0.03509295652157822 -0.08544474448402589 0.05398395879130417 -0.08516484254735801 -0.06123884134396942 -0.07637392448719278 -0.007371567759549474 -0.04971147087662067 0.04810650691318962 0.04094093468288079 
-0.0185324108299076 0.006533550694701936 0.012717508413390349 -0.13450843356590642 -0.022566376864178395 -0.1464154790947974 0.04467494210578197 -0.005559574136503621 -0.09599364856750879 -0.03680090654164852 
0.046083710440697014 0.11334600625173244 -0.11978186259837219 -0.030115527581468945 0.07316389503781469 -0.04205139472936757 0.14593363102689988 0.06971916415612305 -0.236169816978969 -0.2527767401078971 
0.11812574288162778 0.3189232996835546 -0.2252832936657278 0.10178379798978354 0.1729722111766124 0.1586681832326866 0.1572398255190611 0.20959312192699897 -0.25786149294352195 -0.3643914838758278 
0.06077669408760554 0.067456678914475 -0.09664951964343829 0.04549157150485818 0.08311096558203947 0.024667379930527762 0.07860648909599514 0.10051812926550398 -0.0642368948100552 -0.13081320437395783 
0.06591953392360062 0.13508464149878457 -0.19123547937919425 0.08064040377253956 0.13162205047263428 0.12526034891476434 0.1495386672150984 0.13408323548458814 -0.21755395798279178 -0.26319359075762727 
0.07998875072508535 -0.02186361825990416 -0.08982976304235941 -0.037978203516743234 0.09578844926598855 -0.024764479269253223 0.13768818411208178 0.02943778654450088 -0.1766024571038311 -0.2007402673053952 
0.03094882881055664 -0.01735739843501925 0.0257972662623165 -0.06863809357974464 0.008085480360672775 -0.07763766871393352 0.05752402681000442 -0.03617888756912869 -0.06607620397635915 -0.05428660371836381 
0.015565987541390191 0.07776936972926354 -0.004238790861458799 0.021244383718540885 0.03882439457812254 0.05074274238263614 0.050780406924717025 0.01925475606793741 -0.07138456256713428 -0.06453516547558777 
0.013739024950622953 0.044398940961348256 0.00011635082876251118 0.0742156073747253 -0.01101146812538982 0.09065702860851779 0.015130886506226168 0.0272212130823053 -7.820490507281022e-05 -0.0376148695465444 
-0.09990302941804298 0.03332255348323099 0.028278416306014572 0.20047343838919734 -0.10939291446662484 0.2606437976095688 -0.12060731138079607 -0.035960124076218236 0.07712076704052849 0.079676099128762 
-0.036215605821657386 0.12764149616623438 0.009448175606684015 0.08999938387689103 -0.005575771367926359 0.12312079871252316 -0.05805290503856844 0.05185206674983388 0.027759398378748842 -0.020206002012600244 
-0.06567234732284385 0.024812230269298123 0.02934166658623992 0.0941414161849289 -0.05075271383270942 0.12051514502983722 -0.11777457546632178 -0.02934249250927992 0.08878272577488694 0.0983391422325101 
-0.08514962623112235 -0.23514880918496514 0.1626187576707124 -0.10881117020327734 -0.10915179918984608 -0.08997787333850846 -0.1376259950459171 -0.14661751300378817 0.2254024273195479 0.3105921260447736 
-0.0995682930812251 -0.25311135270330176 0.08656483772938922 -0.08327434512649187 -0.11271849254335234 -0.085038334785834 -0.0635534715799419 -0.14967428109051903 0.16285354478789435 0.2294260407517332 
-0.1056538979051383 -0.01574956662641443 -0.08461052793494193 0.15038498070662698 -0.0755704348167243 0.18851113188599422 -0.0933590006203626 -0.02122013590855241 0.0017586535644715767 0.028178088448213175 
-0.005762069514406344 -0.013166604296313045 -0.028604638802648293 -0.06167610780607126 -0.01565535576385911 -0.08867974130602271 -0.009222044119606011 -0.0203272758962762 -0.06232715044521483 -0.06412878740145857 
0.025283549764089773 -0.034819839955037846 0.019086362969699833 -0.24943601939173035 0.02981129302762687 -0.3132362110187315 0.025886114756091844 -0.03429750218104375 -0.12386083766584098 -0.07326425119049677 
0.02798531738822163 0.03492202946097653 -0.028643659783969884 -0.03929895043250364 0.03179200402521469 -0.08376157617870772 0.057835398952868246 -0.00013674959398233665 -0.0883057921348153 -0.08843053308445151 
0.07059230067522912 0.1697785855758761 -0.10961448646761172 0.13915295693285976 0.10779278907163278 0.12272982565241956 0.10385511988948218 0.11614013323709313 -0.10664160352686843 -0.1791353819654199 
0.09397262224120023 0.12601357710808594 -0.11617647605867225 -0.0026165870283721 0.09188026312419306 0.03288447936503879 0.17417036213253245 0.07991209085750677 -0.17856422472223366 -0.1852552563108143 
0.10371950045348216 0.04834691772914246 -0.06810056476182295 -0.047197926005935045 0.08092208974345268 -0.02980812057563703 0.20353431800083782 0.052480131741406935 -0.21309671804853794 -0.19284068555668854 
0.04867881387870565 0.007250164981114797 -0.06605549532252165 -0.015224385451155661 0.08993971008275622 0.015419408603903523 0.1414734883212312 0.044348577428760146 -0.17315602760017496 -0.18644114285151334 
0.06342458517661123 -0.1644670544281354 0.06506410316403768 -0.16632152059455435 0.021855503482410252 -0.1618075659078003 0.08995630428164386 -0.033040227497466046 -0.07617768089115007 -0.009205462769252182 
-0.002554270350859007 0.22159357079642764 -0.15930081422295359 0.2684126607795427 0.07032941300955806 0.2720310561793573 0.01180263869028825 0.10425939196761755 -0.06835393697469827 -0.18539111087969182 
-0.041142601205911865 0.19194682859284065 -0.16718466610407978 0.24234165716775077 0.008528014799116895 0.32564642319146786 -0.05576728673456851 0.06897741101983296 -0.09692093889388122 -0.17137945413832534 
-0.03215877167084825 0.14577163809947075 -0.11966010038458308 0.23625613296286568 0.007630238940962789 0.28041461914628224 -0.05916122179279711 0.027988383304148906 -0.08063572499803413 -0.16797055193848048 
-0.022395386582157742 -0.043196178260462216 0.08276045318315436 0.022154582251461514 -0.04322274441356509 -0.011676821554656883 -0.036676644166409325 -0.011679057544032447 0.10291783341246356 0.08134577452168086 
-0.005012746447657803 -0.10151065583344357 0.05210139387061752 -0.11759612496645723 0.006610611990111381 -0.14049856630453314 0.010325290917202207 -0.03348979639331434 0.018199722823640976 0.030281459298341088 
-0.07597799840819064 -0.21841082132369316 0.13775722070131768 -0.10446319912767325 -0.09331390599799283 -0.10097537904032403 -0.025097059003115162 -0.10091359357580172 0.08159580392841624 0.17968008424828374 
0.005119747729133491 -0.07152485154882501 -0.08096586477556511 -0.029609476801407006 0.04565075848657603 -0.03672418915857743 0.050528962478101694 -0.014714315076049315 -0.1357013438153505 -0.15734289998868894 
-0.017973370451504832 -0.05670090453688814 -0.0892127562692862 -0.18193793122774854 -0.04985636813105869 -0.2139581600282101 -0.009336127318986837 -0.06719797070024171 -0.1258297204878813 -0.15367268332109413 
-0.0030458597637076767 -0.03891703900177221 0.017080180598065813 -0.2568093025884225 -0.011957598030162407 -0.29475665053876154 0.016064410139669055 -0.02259217351773404 -0.0767031376329313 -0.06076215160747522 
0.05319664031090033 0.06607033251571581 -0.05950305435883373 -0.17045360643566004 0.07062140873304504 -0.17645804787671798 0.0997651139915311 0.0025502320882690036 -0.1774215360050712 -0.1897466802293239 
0.12831422992189595 0.009650020898534964 -0.007270665556702885 -0.1724693297210973 0.07923363370036748 -0.19438135610938628 0.16617656895967797 0.062451027742457386 -0.1359305897424774 -0.13931086005366164 
0.034164182294884375 0.043125961475436896 -0.025968255329644693 0.05025448649271841 0.05964187723532263 0.09324451613447099 0.10773927294211438 0.06341458968080714 -0.08275498505092652 -0.07400766491963331 
0.00921479757412036 0.09277992883677755 -0.0238847100646904 0.135735649183028 0.04757193548202966 0.15542743240162762 0.06536197981380536 0.04280954703865868 -0.05189707875830591 -0.09271860463570411 
0.09210175718577568 0.01714667633606561 -0.01411705018333172 -0.10486385713161013 0.0464440710577264 -0.14868808635902211 0.16586280330646824 0.042028948944503826 -0.08386241646624197 -0.11322524493965894 
0.10005137663067312 -0.1084790584022892 0.026599022388700353 -0.17688158928791148 0.07265480487060563 -0.24406906164899422 0.1366598126550138 0.001322979574111506 -0.060199445857388865 -0.054639296984778006 
0.07828526312743711 0.01803863730420486 -0.10749990388879924 -0.05223449335295487 0.07750405420654399 -0.07434375445045335 0.14711451790779598 0.04213917685380031 -0.10275210805726794 -0.15410385805545435 
0.07947170462202437 -0.05872142773413666 -0.08207332449102628 -0.091244382379354 0.07551185253357945 -0.13584242651533224 0.1113859556645572 0.05776004890223094 -0.08517090183387106 -0.1467132969235615 
0.01956778292855861 -0.08004060277947264 -0.056113270476641545 -0.058928738971244225 0.0029201748867223746 -0.069551346182296 0.032507635273333196 -0.01145589752742544 -0.04426588589009971 -0.07527623316729606 
0.03724233145397058 -0.0303806038804783 -0.013098209347050922 -0.06971190211975435 0.025076868828900905 -0.11655595482747837 0.05416104838098442 0.011256816821159737 -0.053961270575532586 -0.08260577807752457 
-0.04771315575543536 -0.23032579787045926 0.0876169131130046 -0.15619729424666143 -0.06815350495170665 -0.19601221651557976 -0.011706386696993809 -0.10921048149317387 0.05217799154728402 0.037478346382747316 
0.0035086836126677536 -0.13291261707467117 -0.019172476772137563 -0.10404581309505943 -0.005944767339470509 -0.1348478292358316 0.06508227311577924 -0.04387314284577254 -0.0782679698542922 -0.05004631244486079 
-0.027666671266023818 -0.14680701620669034 0.012899988058508935 -0.18958098525578568 -0.057874651757791815 -0.21372747981286544 0.036100136716110204 -0.07437960006580667 -0.07891366364165489 -0.04144227525635688 
-0.023427101141444914 -0.04289266661763086 -0.02675481734078974 -0.1225507842908136 -0.05356574133432507 -0.11372778027845579 -0.02975318674724383 -0.03170566305268089 -0.059851003013894864 0.0026411141852346665 
0.008997734598847616 -0.06088374066018491 0.07196879700920417 -0.19322104488583627 0.018562243230280336 -0.2404321729535237 0.015098970906788162 -0.020611011473967912 -0.009646692257490055 0.033947533636045836 
-0.015320809597729747 -0.05055669026343866 0.10160375396887367 -0.15043858132778376 -0.04597996741391256 -0.19030879614960083 0.02993982267359642 -0.05184217160256772 0.02763541159232221 0.12150440507367904 
-0.00728661905980192 -0.09981915849054683 0.08744636306007639 -0.14405973086620177 -0.0006340005250697819 -0.18186719728545764 0.0810567660371798 -0.04530106910736851 0.024498136818278896 0.03036592040542514 
0.05699874081154599 -0.07876826990062509 0.052518974006554364 -0.10275386784206667 0.04304828473060744 -0.12423609481125505 0.06440722634249399 -0.021884758332512723 0.003251365622676059 0.04269698366620485 
0.05424414875168983 -0.1225262475356773 0.0671156875914598 -0.14816513952866384 0.02982294892743654 -0.17571214114117156 0.09172660018357101 -0.019763735570277656 0.007268544644382625 0.042046574147980284 
0.032334455549982814 0.07730934414220964 -0.01222593847607482 0.11232605505982933 0.033701857288420276 0.13820817291647672 0.0518871418678638 0.01800884306023232 -0.008823851755606488 -0.03877651612140636 
0.07261312984838977 -0.030736384250969768 0.009873541822659794 -0.1294769880265763 0.022524810761865452 -0.11657509778792904 0.11098187827885171 -0.005174925825209574 -0.07578720932512427 -0.029555025728502663 
0.06532579460843368 0.030004447368078172 -0.02771767408972854 -0.0427399427789459 0.03799878026578708 -0.06801392377573609 0.11662441424087976 0.05540171556152811 -0.09696416745156536 -0.08471777565524806 
0.020221846572574705 0.15682207837707704 -0.08067768007754825 0.10939931697223922 0.025520003829317774 0.12080637298127246 0.05266321333507126 0.060158527038778435 -0.07423096658898702 -0.07453490553785745 
-0.005249151715421126 0.06411458803097228 -0.07829354359758364 0.05941257995808222 0.028268777433102715 0.09197560174066145 0.026825691597168883 0.06516682630539118 -0.028086407739019638 -0.06682907511305697 
0.0017321808467914077 0.16620810898298838 -0.14831895875951712 0.15125855619496953 0.057418037950028464 0.18265758008316668 0.028669419651643598 0.043725508321872913 -0.06544365005729463 -0.15063147840173874 
-0.06674529063964044 -0.03450618560672709 -0.010440314738140877 0.06067589501913541 -0.046044419956861586 0.06674348034454466 -0.01720362593435188 -0.040562042196277855 -0.016547509922968027 -0.019118817486921506 
-0.07866437254898362 -0.011778537523651305 0.009716251142642306 0.08992115313654013 -0.04529819310331592 0.10367927222635584 -0.05234514552900992 -0.06106826836734003 -0.023484537986705512 -0.0033547994910535063 
-0.13300515830687792 -0.09274274927801542 0.03968396798520847 -0.06343242829658371 -0.11043616389259713 -0.04801389950867477 -0.11550805577766349 -0.10105830610743707 0.043240955907291996 0.0686100155816237 
-0.028602955302640933 0.04620479126671663 -0.09143421585668034 -0.06728082761921343 0.02468415890865718 -0.10965147070370558 0.015497678003521226 -0.008563827460842773 -0.190815673230318 -0.1888317269911222 
-0.07270133903541151 0.023390617542457318 -0.016315650026282755 4.660020983511884e-05 -0.07508388857043208 -0.0037240134998061877 -0.08911474363887315 -0.03455916820181516 -0.04579563891952414 0.0038888095291326093 
-0.06380930984958846 -0.010307408007060407 0.03797865424709486 -0.005593304688540728 -0.00385605487857648 0.00433554715419604 0.01596798932579946 -0.030981472374727884 -0.007119074461137617 0.07331015784241059 
0.026026737681485775 0.0021601641610300513 0.06919292176784551 -0.07550385818310819 0.01692355127260533 -0.11966571364688157 0.04388805003141615 -0.03933659466784479 -0.016910820504987156 -0.00668378149356501 
0.04657628670028886 -0.04856089652983469 0.012174034788626751 -0.11309339065310364 0.07882875628512508 -0.1480936701168366 0.1299102100104244 0.0244140010789951 -0.11838372325822985 -0.06117792181002124 
0.10621840036379128 -0.07245000951646352 0.0331389786531638 -0.17739375032271631 0.09020527538465184 -0.2280624295778756 0.20806534916144565 0.04117132097515388 -0.1099806068951916 -0.09984225430972322 
0.054952805351534496 -0.009506748755795248 0.029575917567242604 0.010565730078209252 0.05318163691345693 0.00875371052094493 0.06862312857815368 0.03257187700924466 -0.0003420987177868252 -0.017102356421155346 
0.039873376166968 0.07352326167311432 0.015943448544844016 -0.04975182799232913 0.049727393600424497 -0.0546941625864369 0.03446794713230602 0.027269395132117905 -0.04775149922380923 -0.051736788372404925 
0.05504437619697976 0.11448724928501121 -0.04466967572756358 0.0176708101859853 0.05863224903916367 0.0035032395479642235 0.05791357660449856 0.05102437401907573 -0.05979814201413751 -0.11576598391196091 
0.019279642705287058 0.13570657234822758 -0.07999969513948066 0.08523128182778303 0.07307999404176904 0.1171832507140953 -0.0075641097084807665 0.08690547068723915 -0.06482564463728102 -0.07138162052557478 
0.0060125060322893525 0.18166428673485996 -0.11779237622216741 0.09477460444693347 0.04521692895438094 0.09841820315006068 0.0014337590182154861 0.07586514623094272 -0.10243342573746866 -0.14265733893943622 
-0.04498092044445101 0.16318836808031367 -0.15515806044598338 0.18344186620310032 0.013168280507942463 0.22601790245858186 -0.045513237875486744 0.023647790329150587 -0.07870838991098726 -0.17942439205074437 
-0.07449401451007923 -0.21180312218182665 0.13083398143256272 -0.07290357101129735 -0.1085284431074148 -0.1105815179591762 -0.07214441743541641 -0.1302474245268906 0.08536582314903039 0.11187091364233644 
-0.0312105900310412 0.004179716320124113 -0.018713865536589665 -0.06009537369367669 -0.00013842968004577905 -0.06810890415974213 0.04149401783172197 -0.04162293335560185 -0.10220304502171522 -0.0443297207220127 
-0.06954861924955513 0.001236430127775497 -0.08188387553847251 -0.009646087913422759 -0.046580388703478456 0.012604604895740931 -0.016944958878790203 -0.06954656346848838 -0.03472570671579176 -0.09353334814584803 
-0.09421764504241184 -0.1478434368793925 0.05840414260053125 -0.1107246412997766 -0.09661523019399937 -0.11612639835243405 -0.10052247103479557 -0.13593539049733344 0.013344604738602137 0.03771326510302778 
-0.06993849237936735 -0.17335123509406491 0.08701252285122157 -0.2654048827846192 -0.08390942418205596 -0.3473044662817264 -0.03178694153214539 -0.09511036988288155 -0.02941756658088808 0.060386817441953254 
-0.04864840903746461 -0.14542516598000785 0.050599181220794716 -0.24158985937387042 -0.04190852431933106 -0.3086280577438065 0.028747003039215714 -0.08508279517310317 0.002693783094886339 0.06364118707919234 
0.010433870830650267 -0.0817494376374472 0.15658167341188328 -0.11230591150780334 -0.030736072118633148 -0.12407171116857342 0.03554313059238213 -0.056473413307503245 0.09848602745550303 0.14043675084219365 
0.00828933517388266 -0.058392484841670964 0.09511223739202239 -0.052185383134254096 -0.015684482135793473 -0.09006685093534092 0.03926291306301617 -0.040397823232932374 0.02915971737200995 0.0835378050932986 
0.057010600113602046 -0.14164374819674241 0.11295998881389248 -0.17905546830679053 0.009201951321067735 -0.24527371070562115 0.06048013226937289 -0.03172141811164851 -0.0664578015203844 -0.012897987029854544 
0.06004087951395633 -0.0498182738652834 0.013817688869667496 -0.11912996226903678 0.03604179025902137 -0.17875258090894794 0.07731247170704625 -0.0009446605661330605 -0.05675089213166899 -0.0628837077062427 
0.04561443155125875 -0.10282477136686992 0.07944491505429577 -0.12134633206099663 0.03228805944707656 -0.10952334792264601 0.05952271536038283 0.005908546630001714 0.0034758314611275255 0.05657364450090575 
-0.05517321579640024 0.00811127295690087 0.06687747057373067 0.028046072419130607 -0.045518146645834465 -0.004555606982659639 -0.057931404760575844 2.973405708395563e-05 0.07173184703217586 0.03707282868059271 
0.022066283885934776 0.23949525398340077 -0.1636362443588969 0.18166925410489546 0.0694515948954427 0.1836394027931634 0.0029682935109906564 0.08641381365485756 -0.10248306308185189 -0.19110371765759737 
0.08076113872745579 0.24028110540803524 -0.1406520423302702 0.13048923232372991 0.11143697258899611 0.13695234181808688 0.10257480887822046 0.1345529737876637 -0.16651780164316585 -0.21637952825077755 
-0.064863711376215 0.018322493936664495 -0.0025414081842622567 0.05389933959313417 -0.03652156241737017 0.10814988550376663 -0.046362716528476684 -0.04212141629676069 -0.00139954109061639 -0.011485308112913522 
-0.05241042045592241 -0.1138961047348581 0.048460737066514804 0.053294509202018656 -0.07947382045474063 0.06228687305172034 -0.08798470954721388 -0.05861114458708476 0.11616438479364162 0.06564048840716322 
-0.12503392082850714 -0.1587261946405733 0.0920281995792128 0.08416682862020886 -0.13744525639597308 0.11284342821974107 -0.17289795856862678 -0.10709022546845019 0.18071258638987014 0.13702635088901644 
-0.11213509288791526 -0.06289361577895583 -0.035353108135389555 0.08450343852091294 -0.10866888212029505 0.13149112775049576 -0.0898932423118297 -0.1098591329029934 0.026104674124074047 -0.016067041806376043 
-0.19822900822945605 -0.31707287805253426 0.12021981449189645 -0.031543032096009144 -0.22072900323604847 -0.028125503867905677 -0.15329764013387948 -0.22429747674361736 0.242492924606514 0.2856015282842417 
-0.09728703964982063 -0.05790543735255643 0.02231415052028671 0.007878223144663798 -0.0780415558010896 0.028586320492637388 -0.08233503545349369 -0.07761741564240619 0.004128459870618096 0.05226451829517202 
-0.1446172849846359 -0.09596939503924908 0.04501316388210493 -0.03723876993484301 -0.13981858033312644 -0.05662616862081781 -0.16743021327757265 -0.13179628665122345 0.07997036594661931 0.11713788257433899 
-0.005275336641665348 0.034903702899793186 -0.007462850905980367 -0.009374477345955007 -0.02247545220780882 -0.005269266178555292 -0.011285686065771842 0.021205402299381056 -0.018913026911420137 0.008704660591702582 
-0.008430311403658453 -0.09439816675013658 0.12739855524710367 -0.08279718713046814 -0.020633905036135936 -0.06918080047572857 0.013947788912122602 -0.006449134383672459 0.06287985476622586 0.09682001883729219 
0.013907716464375114 -0.21178443947245765 0.17042306834292506 -0.21366683852731674 -0.031289672480324104 -0.22783288719661537 0.07743790310349041 -0.10063366026722441 0.0470264219152181 0.1356971117519779 
-0.003008452150950398 -0.17092522795102155 0.11337362879964999 -0.16541250473430627 -0.013467909020459523 -0.23055065188233492 0.0732112729560779 -0.06387421845510005 -0.03632093761508868 0.07503225731822656 
0.052208020610935345 -0.08259173116330959 0.06715487286180254 -0.13872871616082655 -0.006253300592899917 -0.1775332984019411 0.08651895353557103 -0.018759791534289902 -0.028142418918523756 0.00604468908381327 
0.053822241519370276 -0.04946314779574592 0.03860020992865516 -0.06482040978638491 0.031098803319499983 -0.056745710599786926 0.01579040128259898 -0.017123270926405452 0.011666268019713667 0.04041184203908742 
-0.034345795054341495 0.04389837664924453 0.024091823968005223 0.09625184298214116 -0.011153892738106935 0.11618313585174775 -0.024092013565167023 0.0048568374706304245 -0.015214520749996338 0.01413874484593046 
-0.04857150966632611 0.0679860665272028 -0.059136197703952995 0.16426682813301208 -0.02970856021981538 0.24413810550378956 -0.05626895376368158 0.023034077878311868 0.04737613360420716 -0.0037576700555932707 
-0.028993007971650196 0.12586181873718352 -0.07942110689344022 0.20040536672027176 0.01811164215053477 0.24675425233597356 -0.08739461718533786 0.02781259398810612 -0.009629519530014966 -0.15060369735823345 
-0.12470253207640991 -0.013151570536181576 0.061868655478342374 0.1436536855033415 -0.09986130012198807 0.23064515820410186 -0.13298734527378717 -0.04879583425789293 0.1506904990449129 0.10010233951808058 
-0.10366662831824305 0.05193201814141017 0.03032710238871024 0.2357443853109122 -0.06637376437846991 0.33916318550009045 -0.12496168816707698 -0.03321249711410683 0.04879519716011432 0.0890260432197539 
-0.047418324492302155 0.03803051601559842 -0.01652233573577319 0.16924096187131474 -0.03401703171280805 0.2485145531671265 -0.07487487520243452 0.013335496645268782 0.0450517861365428 0.022931040113215794 
-0.14016897893925379 0.043228536009545813 -0.017508246927380594 0.09150418712401509 -0.07222000030442591 0.1424894316374435 -0.14387992752069695 -0.08508664568328253 0.029114689379150634 -0.001960501943047269 
-0.13184062281716796 -0.13263371331465043 0.08411717231682325 0.00953645927233366 -0.13610445993564302 0.04963776702392503 -0.15905210358088095 -0.15026780245434335 0.14866172623193177 0.1964410954175584 
-0.16666496660189417 -0.011178408751050382 -0.019324670802789254 0.06239167602273863 -0.14158889923638965 0.03079099818602059 -0.2109788712250123 -0.08239263207974448 0.11771967684907249 0.07836632675440489 
-0.12616462018271615 0.007306284766519289 -0.0026723707710793777 -0.03565260744026735 -0.08638367047080206 -0.01653261802117065 -0.18022112590774503 -0.07310700426562759 0.02974641533044918 0.04701323025034675 
-0.004117791580882536 0.1885957850517561 -0.10837524272051852 0.16544383936288518 0.03296725885994629 0.2015668112149773 -0.06913815749679564 0.05108928671491584 0.009563376801778437 -0.0239610646335504 
0.0667666130218257 -0.02086858876811238 0.029364350920634823 -0.043023302235458194 0.023680603739124124 -0.02082828193125701 0.09072275722756365 0.02725191343741127 -0.03907240390112181 -0.03235893890078312 
0.004920159511197257 -0.09048519194850001 0.08846657824004817 -0.11114785829974864 0.006743631795408501 -0.07113265423186847 0.039851779025540844 -0.020674326871912507 0.004448561659854296 0.061267841301842554 
-0.019357156600275552 -0.08972079694566905 0.06421227521788234 -0.13279178288713622 -0.009099951982108875 -0.09969142958724414 0.029073392255580734 -0.03130998986242566 -0.03511287980278013 0.01841247844197325 
0.03561280643884234 -0.10422650435745986 0.058256072160759835 -0.12059206199044895 0.03742485076777178 -0.14784719755034986 0.1049391687293312 0.007593704937238357 -0.04735602213963258 -0.007491479850521038 
0.037202232574105064 -0.03972654130406758 0.06101368136389963 -0.063076957589279 -0.005202096025367115 -0.043727488365045725 0.05651681434700344 0.00878122668327272 -0.015000084532984867 0.004171428439327881 
-0.05467940566057547 0.11240032174916306 -0.08174296058650772 0.21220414366215576 0.004221007937406477 0.25290846597601074 -0.07589527284719362 0.0697129602298119 0.0648681787849131 -0.0501089827560838 
-0.027465055101140765 0.19013881034950147 -0.1280562280626514 0.2986610773320472 0.018028425939258012 0.35929587499829874 -0.05672269788040239 0.07105743078660953 0.019076509957071677 -0.1042124903286533 
-0.05032301963792459 0.1384627836335054 -0.07939771904056307 0.3128550887352716 0.014971646124848574 0.36407632878530566 -0.07430561447381237 0.035615221478953345 0.04405930569860269 -0.05220548246832292 
8.4842031416529e-05 0.17074462582818573 -0.07180974379124247 0.2488890029591672 0.009058548920791516 0.25020785654934263 -0.0108813033901251 0.077725923465183 -0.03376822849858867 -0.09329957513351382 
-0.016879839475457188 0.09355695039675814 0.0604320518518536 0.08617012460125674 0.022853137621156594 0.11074640671858803 -0.005097634124170969 -0.0020257806977398048 0.030123253911843 0.0439592942420631 
-0.09897859717015287 0.018819290954212354 0.05555239242337011 0.16039388067421861 -0.09964936318190933 0.18310551766937624 -0.14230579543903288 -0.05029897681108931 0.09342998562345681 0.11485931487130062 
-0.14139318396465722 -0.1220745927826187 0.1282600655017944 0.007928870538142604 -0.16544012587767376 0.0670057094488026 -0.19034509501165292 -0.15924042790675086 0.15196888725324062 0.12697093411629753 
-0.15753428872523542 -0.28571483576297274 0.17386830339652445 -0.1250816880094908 -0.1416293591850292 -0.08375976189536055 -0.13065097007413048 -0.16961418844047887 0.2191477912623278 0.28869114213615393 
-0.04355717230233604 -0.07722037490325671 0.07049103893319497 -0.13567764582477604 -0.06406398156161767 -0.17205612145397495 -0.05354406982482823 -0.09678760448104139 0.1065156694910391 0.10334564190713094 
-0.05685624262511126 -0.09684018298390223 0.06036204539333715 -0.12891208120655256 -0.06629320340122227 -0.1879534243467107 -0.1288106763829171 -0.1031759394875317 0.07445741997423475 0.12401171665790299 
0.04412886996366215 0.06397201724170201 -0.042131267613095116 -0.003088301042121778 0.03583486064122062 -0.0012166474266901922 0.03175646695533153 0.020498441946252388 -0.04189104109189065 -0.03824713571586624 
0.02152525356809417 0.02589171235881358 -0.011902988454357319 0.030619682395984723 0.030879439592507163 0.039712645447993696 0.0686265217075259 0.015259125058586813 -0.08606295206574455 -0.09647404101731707 
-0.03591859056946768 -0.05594949839638777 0.10256474577911293 -0.0253115440215311 -0.034663233320502994 -0.05347995565741575 -0.03131244403888399 -0.03011207441379976 0.00334138193236775 0.08012660324041064 
-0.006374972118214804 -0.05883643553089292 0.024657280117542035 -0.0698004139287182 -0.00016334918110272496 -0.08751151842821635 0.02381874025310793 -0.025133771384597686 -0.08769981182739733 -0.02751019668998567 
0.033776843079322195 0.022970272199950334 0.004376264200725601 -0.01613832390214549 0.05609821326479968 -0.028191849703447895 0.05541484598092142 0.03474964296125002 -0.04309624992001782 -0.04312270830566169 
0.07319597115956009 -0.012913372124411104 0.016649821365746956 -0.08133100147430543 0.015989369170475755 -0.08965685338722039 0.08708852578931367 0.03424815497464133 -0.015078329628360324 -0.031322911477066256 
0.006981410440101615 0.29012253428578727 -0.1807233686942167 0.3595055157638211 0.0783328537747247 0.4415745383905231 0.005718851458548118 0.14546833849920918 -0.08452930038334218 -0.20121915584531816 
-0.013269613180541762 0.3506521549530856 -0.2318767820896047 0.41406343003176427 0.04330344650883647 0.4636169285340986 -0.04073246963820677 0.1327476572457613 -0.11273066414499336 -0.18547192719671612 
-0.04845501586620747 0.3176259413316007 -0.12228350612892612 0.37460365862207073 0.017908821873312396 0.40007557544909367 -0.10672199058034093 0.09464480489403937 -0.06713195682347911 -0.1306264425303235 
-0.01798444506929492 0.2541912729013115 -0.12930108035777632 0.2613911808811197 0.03226848187921645 0.3080249120465016 -0.041013537293915915 0.10164598333382949 -0.051291706900115405 -0.08766041959923833 
-0.04654596554728897 0.017170699538839686 0.07783920005700641 0.0780206700907545 -0.07592647506521465 0.10178427147599388 -0.09036243694648896 -0.01625769841997032 0.07544081637418604 0.13123561478118134 
-0.07886116674205193 -0.008522437957691694 0.09135061153861057 0.08979488793831848 -0.034471472594426775 0.10980115390692674 -0.07844699162513397 -0.06513544034503893 0.10295716733187375 0.08672485896357471 
-0.17566108952278967 -0.2973254346654544 0.20453446665813682 -0.08356140669069372 -0.1785739570530969 -0.01730170234138154 -0.16411714735405336 -0.2099785091653797 0.24225422501766855 0.2879651771669221 
-0.09067234262633735 -0.13828614813247816 0.16656347987717107 -0.07462766830350094 -0.0982551248360948 -0.06358091739822362 -0.02215638454230636 -0.1032720924515306 0.11702979123173081 0.16367388410493067 
-0.03687428138037441 -0.09229780942093901 0.07562880902875677 -0.14524135142570957 -0.05604690520989943 -0.16298382605978348 -0.019549285961663623 -0.078379341586286 0.08706618547077005 0.04014007191372286 
-0.00022501190720593603 0.03532155001998087 0.00027046322512352255 -0.06041655571180358 -0.01618834321378955 -0.08874117221439955 -0.06385214334476562 0.020076823146811005 0.02623534095741875 -0.0014065763000929848 
0.035515835624164646 0.12522036446555113 -0.07005034279564397 0.06634338151510515 0.03004504703680557 0.0619103129197743 0.047070739098374045 0.05953123793466745 -0.056041331489711896 -0.055906941227325646 
0.041648592742438 0.08835567862925457 -0.07618185731118744 0.1393311007418089 0.02617553281983459 0.18567126624859412 0.005602850067316215 0.04923111132200831 -0.052222941221244434 -0.06546470797440657 
-0.04664301245916692 -0.014860684873795289 0.06942469039625258 0.007006023408439456 -0.02451871143610105 0.04847653395543189 -0.02373380050861005 -0.030230682024857878 0.0007472183722226605 0.009385199987379881 
-0.03369865007482656 -0.02557217697392623 0.05217818272393189 0.017243755506632544 -0.0025960156163069136 0.0286137436484114 -0.03484732238894081 -0.044356635508737856 -0.02039637899280812 0.012650040975102661 
0.0070485580938932525 -0.02466736709598124 -0.0008176947000817433 -0.035827919068133804 0.03221518737165722 -0.08664319161590295 0.06974925553133443 -0.00773733939316613 -0.0626990325585353 -0.003402760468808764 
0.03709684307932219 -0.003969727800049666 -0.031493735799274385 -0.018768323902145497 0.06242821326479967 -0.05284184970344789 0.06783484598092142 0.057179642961250034 -0.060156249920017835 -0.051582708305661695 
-0.010355200898189141 0.23959233595585522 -0.10941215779796871 0.3158668258420651 0.03639713375526214 0.40474793001726617 -0.014472874578865548 0.09351650308801843 0.0020660606026712968 -0.033065704956584854 
-0.06776105969349402 0.25748564006205676 -0.14437458476711765 0.37345934529728175 -0.02889783937061504 0.46328930630039994 -0.10153346252222221 0.03659990093452065 -0.04636702481604175 -0.08192150047212081 
-0.103056031638218 0.174197385898774 -0.10249713218453599 0.31956390356721487 -0.049913602942821794 0.332539318276925 -0.16037637620931033 0.03853039631673899 0.04066014705050075 0.014450910552539956 
-0.058578892772966976 0.2044037798159732 -0.10873592604019565 0.27448341295352774 0.02780179037635088 0.3021939038729633 -0.10141037025485333 0.05929174156257309 0.0352208089968863 -0.02864243606500799 
-0.13363089613219437 0.038607547642878694 -0.02007038106795483 0.19781221943512745 -0.087917148771129 0.24867392393666557 -0.16410500633238695 -0.02263580529839109 0.0992720893784455 0.028071880496592462 
-0.10470394980487381 -0.1279400445296058 0.07730042123504183 -0.00998394748530207 -0.11799833337847879 0.0015629554420356307 -0.08629677499049658 -0.07849039268965671 0.1316096497426305 0.13197879427106926 
-0.060380331261164856 -0.16252775159126812 0.11517658579276728 -0.042881900717463076 -0.06741515042171883 0.0028668260042974784 -0.012118071372577591 -0.08705410820595026 0.13927841873127766 0.16777789647872288 
-0.02685934876675902 -0.08583003042872817 0.09776983406689506 -0.05434381356573406 -0.060729210430859416 -0.07856286767202214 -0.013118070686040947 -0.07052713216338662 0.11557759584658298 0.10057917279641732 
-0.08181456296054039 -0.0886289487664507 0.07226723897525412 -0.01935105149682803 -0.06461203271079252 -0.029606771013242054 -0.09876207882154808 -0.07944638309476947 0.1213445806331377 0.1010378147066401 
-0.004921258350640043 -0.05543238086703339 0.06629648990583155 -0.14882053233996426 -0.012317683622548214 -0.1706335094429431 -0.02893796269148939 -0.006613786259656623 0.00761933402174747 0.03280600939332684 
0.011449825060008755 0.00820021909386786 -0.005606266007594604 -0.03298790314192751 0.014683780955947152 -0.048031287663936884 0.017624630012402116 -0.014342594791492738 -0.01913461808411999 -0.02492168620059709 
-0.009767137697948482 0.0577483519609257 -0.024468869906291175 0.15631274849731305 -0.03494918929150305 0.1597341992137803 -0.04843143505572619 -0.019140859552250627 0.0016700564264136859 -0.018990189268941676 
-0.03900318268190114 -0.033928940183521994 0.07931369298937314 0.0682823728244816 -0.034213513012319584 0.10593075620325738 -0.04881724042884493 -0.041597745412085246 0.06092807670762523 0.08976713310063782 
-0.04801134994381914 0.06065086590939575 -0.025178709934162786 0.09030524852309088 -0.021235446808445503 0.10151017950487638 -0.07245834242094548 0.03146607325499492 -0.01227199789212799 -0.013068378983326833 
0.02620393311467071 -0.024482314969041012 -0.02019922222386977 -0.05501449539928602 0.010221139660320483 -0.03498488405021882 0.06576367809404068 0.02633119581385914 -0.061616571950424665 -0.07837843276508762 
0.03863953056178111 0.042743184828654385 -0.0919999105041735 -0.046524892660850484 0.07996221403325007 -0.030942660717526802 0.07076610018486176 0.07795972269585022 -0.09257187821457179 -0.08329297139195385 
0.0452578046460546 0.09936436772295863 -0.05185479624669929 0.06999949913634136 0.06110784184799798 0.024057572579653602 0.08050935901874608 0.04368900291746463 -0.06803463575107899 -0.05165359318213608 
0.0030849232731579856 0.034013379081949784 -0.007658548665535396 0.04828676217548235 -0.01022039962705381 0.04544586087858979 0.01704218597903489 0.011984847495512381 -0.02865111394496152 -0.009352979928070725 
-0.008955696036617758 0.0480512087799419 -0.024774453191203635 0.11545038767032852 0.0024724972387317676 0.1326319619039048 -0.017597275741957505 0.0011850592579621677 -0.02981331959415821 -0.005270786323541274 
-0.011566899594188947 0.07323430870864768 -0.053542360225007676 0.0642223533875149 -0.016516230143694705 0.06434711357046834 -0.04454581367436707 0.0008239991570075465 -0.05706502021971355 -0.0862443737856627 
-0.05634405459141608 0.12602533904018887 -0.13869932742004348 0.18822124074555907 -0.005662873912495893 0.23246125630887815 -0.05564580285269709 0.017740557157675606 -0.05541641537695911 -0.13267680944079974 
-0.03012748442503919 -0.06119194702075597 0.003531948121273512 0.01115214384570574 -0.06598507285677128 -0.014970483784472396 -0.05776617052716698 -0.035725863032157926 -0.015055835447788244 0.0049038896756023785 
-0.015309500193842607 -0.1849583147619656 0.09944727348834986 -0.12495283427189172 -0.04170297039778675 -0.15240839890870417 0.013959944633388385 -0.0751832638132679 0.04352244968141501 0.09452646365434304 
-0.041887139163955645 0.043336689766508646 0.003973052884519188 0.0038805869391894503 -0.03313705334726943 0.02073101459193614 -0.013841166935660388 -0.024140100532628925 0.02207233506647128 0.01565186243156794 
-0.0702686823935787 0.10592834752077324 -0.04153830148960096 0.18254604624226733 -0.04523040065169207 0.20438408161153496 -0.07413459269710844 0.015937422213735467 0.054900545445411834 -0.019478179972728955 
-0.046311105564247966 -0.02616303567013618 0.0787169268655799 -0.011288055452933494 -0.06307694468328987 -0.025868449540035324 -0.06715497876028266 -0.048908535359648446 -0.005662034565845071 0.044180600597268846 
-0.056215556980635885 -0.11953169303161447 0.07567091305142372 -0.028625094528665726 -0.0599047331530802 -0.037844383714266266 -0.0658734198301241 -0.07251799962944436 0.06239985054788518 0.07390309522219932 
-0.05357881363083287 -0.03811213630853566 0.11262021534935988 0.09978120375862226 -0.04597393943089505 0.10061246438377167 -0.08277888652180442 -0.05518314754572537 0.06739298600162623 0.10018454857773525 
-0.057368646513938935 -0.029250685047901254 0.08900998579274276 0.09661026641921598 -0.04025406094238365 0.1606329832684938 -0.08715665974400594 -0.01946130922278239 0.10244529911325848 0.06593568903230869 
-0.09131866523225546 -0.11753341467231744 0.17267414350630048 0.0033423102257296167 -0.11914698646981145 0.025672045901362982 -0.13780348888410543 -0.07827778997419783 0.139647746777273 0.1863554811531472 
-0.03261219742230578 -0.1609719229124959 0.09060623493175557 -0.11205610770280709 -0.05286033401882833 -0.13164625660225704 -0.07596821662950018 -0.10217421993243031 0.05505603156571648 0.07738714255139088 
-0.006426358324340414 -0.11168670949356033 0.06610532046870374 -0.10136777722070862 -0.021428841548136915 -0.15100296534025148 0.03619729582655168 -0.06161872342097892 0.01944127579240785 -0.017074200233667052 
0.09442572765194379 0.06901570363113295 0.00746740063857661 -0.10323080735992501 0.07556923739992871 -0.15342970376421733 0.14749369818236707 0.05891361818664199 -0.07765771808004479 0.001920253967605718 
0.04789843178149217 0.02465426378763532 -0.006195791049207024 -0.026605608996956447 0.040547582846258146 -0.029846912690842865 0.10512509499545333 0.05366421640192301 -0.03612409320977224 -0.009961595661111497 
0.04365708018480957 0.17071200943562354 -0.12632579446874478 0.11883808396706133 0.077172511678432 0.16244825837353566 0.055110967551376865 0.08622920352511919 -0.12970785027922463 -0.15987848424474252 
0.028481968712984904 0.1663581422474082 -0.20912579090871378 0.037315661331075944 0.11335661315147233 0.07980209992923676 0.11720060380938822 0.1244655421496119 -0.22788976242488337 -0.2924665579483581 
-0.01659448587074811 0.18024243075502905 -0.23632944345406362 0.15131192910849187 0.051216772554473114 0.17459631539677112 0.0642940085422391 0.09182246705678485 -0.2571128616249556 -0.33749756362550765 
-0.0628136708759102 0.21509228171547756 -0.2764098564379453 0.25850061553044024 0.030486771833941818 0.31427087220000244 -0.037873011184307206 0.07378559516841829 -0.19922422863609981 -0.3145917573361179 
-0.05117138486853429 0.04209237619574993 -0.1553351928071416 0.0923100475188654 -0.04125403138932494 0.13061954759493094 -0.05437567782633172 -0.017322774485620758 -0.08580906872820138 -0.17298063640149916 
-0.09828504168829563 0.09862159789129632 -0.16645719610215529 0.19040376225541517 -0.03906580469192735 0.22469540593402723 -0.15953736398445062 -0.005876394916180011 -0.03811684867435876 -0.1274755779149522 
-0.050884080640948307 -0.061096350711658046 -0.04427454960077917 -0.07447888832819596 -0.0328942198449331 -0.04546034186921713 -0.05035981240321953 -0.03440060352788676 -0.05347701805382165 -0.0811452969533449 
-0.043530260242418545 0.0766961154188044 -0.036913788787758986 0.11882126191199181 -0.016644331591108744 0.12839477276193245 -0.07703641266368069 -0.012016560073022035 -0.04460570070137888 -0.06285546772969307 
-0.05816657864884268 0.000529727274276387 -0.027262604453282952 0.08322501900083505 -0.07611463803266423 0.1046067796958852 -0.08805316493832092 -0.021854541334345248 -0.024093657894248773 0.007130231114959704 
-0.0386742423921846 -0.07336347886715373 0.06903996284515207 -0.02701604512417693 -0.03979076079279764 -0.032623139258669304 -0.03935428601963197 -0.04304258604433712 0.027563336669800324 0.05692117333362323 
-0.057660325557468466 -0.13521337219060742 0.08034826717116711 -0.06698814222721515 -0.08680357305079 -0.038640413571253196 -0.05141256176239961 -0.05040712982161126 0.12073662408138564 0.15048237152885277 
-0.041197440918380165 -0.10457687486335066 0.08056101648846661 -0.08598395207652942 -0.06804235893641428 -0.07866547037176397 -0.04859602903147013 -0.05162727352806283 0.045522615810791804 0.041184213644709006 
-0.060992161330393486 -0.16469224457906376 0.11869042020565135 -0.14601580525116087 -0.05006526263814931 -0.1327289062158868 -0.04417434760533094 -0.08071880551799421 0.07938776681526312 0.07601301316389728 
0.02719388459181568 -0.04585215630960249 -0.005173283674072961 -0.0857744772264982 0.015373243628153902 -0.06594969876950123 0.0776899081978715 0.021413528052643252 -0.006449407780140162 -0.0376727587511474 
0.021970232857352702 -0.08594964005237737 0.1616018600449413 -0.10906823641760417 0.01140912233498824 -0.11967826169007287 0.036854151772761995 -0.011891102795405537 0.10804940080817375 0.1725853145539486 
0.05484770637921935 0.0001748422546371288 0.03266026566500105 0.020728233441834006 0.0409596827597145 0.007439616512654096 0.03213151559281627 0.04041787840682883 0.024553887855263686 0.04998070594917268 
0.1089864234786263 0.1253924054360661 -0.08309168158826002 0.03536776212416913 0.10120658530488082 0.0017896408149934012 0.12826358501557372 0.08144476387943875 -0.07624087942171286 -0.1455338692036572 
0.07384839369955143 -0.0025683685849539808 0.01975396018657744 -0.04891461406577742 0.0849983628936195 -0.05969517868097931 0.08479311308279108 0.0630015365779924 -0.02503256086165522 -0.07743229587701307 
0.025539712295768346 0.2458795597754722 -0.16735025247718985 0.14317350791667158 0.08550028864101922 0.1820982063975291 0.025939077268728593 0.08775677877159817 -0.17794692773568924 -0.2753888686817634 
0.06186367676958684 0.36051143385636514 -0.28730880813114473 0.2205024775516485 0.13348765509364857 0.2460113121438282 0.10111910828486602 0.19606614702885058 -0.2971874525847029 -0.4300687838912447 
0.060699901750879776 0.17392647626102367 -0.21518536373891692 0.06292591018317359 0.09180421281520357 0.08378986300771078 0.1307126109817206 0.14280384298646623 -0.22140616434202257 -0.29507455495566 
-0.007110977585940667 -0.13110876284232553 0.036516938145449415 -0.1433283711719162 0.004996409162234546 -0.13087930642770718 0.06169105287414654 -0.04037616273175821 -0.05597185217438975 -0.008448876015066727 
-0.03418165715866996 -0.050213674799885345 -0.0361383176577439 0.0017432213118397794 -0.016889427598329825 -0.0379108778364975 -0.05072427332820281 -0.04369657867508597 -0.029642714093652933 0.011799418394383332 
0.038397931894626626 0.12371042187087772 -0.17941504975966063 0.12881520527292487 0.06809804043792375 0.15974320944460063 0.011008134415213023 0.08543134037044614 -0.16029245267700598 -0.19153961846901174 
0.04322756898826282 0.014367191542316882 -0.07889405384522807 -0.011509697052487614 0.03367634471510158 -0.001740258104401711 0.06893827545602693 0.01483592848132875 -0.052091326648553336 -0.05643596055789291 
0.027301477909579375 4.899628582849709e-05 -0.056025046595380955 0.009706349231249384 0.014398912243749847 -0.013675679561481358 0.05700597921019775 0.025099976879017945 -0.033273465327244095 -0.07877143626835599 
0.01757986804174716 -0.05342212129355409 0.022898487092382968 -0.052262684890962655 0.017713975239301412 -0.0826987839397243 0.03057339368768433 -0.025851843096024958 -0.004469929082371327 -0.024949892267946732 
0.03156430210667693 -0.00792646068757197 0.05324119675350676 -0.10117885341593584 0.02339794497374653 -0.11100768524191806 0.06634029911233733 -0.008760963408199363 -0.02264340414463045 -0.006056698563646714 
0.023989668111381496 -0.05124771140697619 0.03388219547564485 -0.08412452467444699 0.0037970888137087034 -0.08945079392503084 0.03141163197428618 -0.03918086356204202 -0.011528742877384847 0.015092540594706029 
0.00339 0.03044 0.04969 0.00272 0.0145 0.01825 0.01931 0.02509 0.04766 0.01885 
